{"model_name":"fashion_mnist","meta_accuracy":0.8384,"meta_loss":0.4613752267222326,"meta_epochs":20,"layer_0_weights":[[0.08113696426153183,0.018403420224785805,0.04500635340809822,0.10306878387928009,0.08589065819978714,-0.0449494794011116,0.04369887337088585,-0.00696021830663085,-0.004747837316244841,0.01889459230005741,0.006626361981034279,0.06688868999481201,0.03500428423285484,0.005592742934823036,0.02041000686585903,0.015344725921750069,0.06873032450675964,-0.009433631785213947,0.014399649575352669,-0.03927465155720711,-0.11742355674505234,0.030062908306717873,0.039759427309036255,-0.034134361892938614,0.10438286513090134,-0.06689337641000748,0.0020962865091860294,-0.008603215217590332,0.07049563527107239,0.0675835907459259,0.0071329050697386265,0.01740337535738945,-0.040826864540576935,-0.09110179543495178,-0.01600148342549801,0.007191204000264406,0.05658669397234917,0.055302947759628296,-0.017794711515307426,-0.013907535001635551,-0.048233095556497574,-0.06530464440584183,-0.07847961783409119,0.08972729742527008,-0.02344118058681488,-0.02015622891485691,-0.05762489140033722,0.035759810358285904,-0.07423403859138489,-0.00978794228285551,-0.041187141090631485,0.01779215782880783,-0.02350218966603279,-0.05430525541305542,-0.0012856647372245789,0.019689448177814484,0.0030604263301938772,0.013910564593970776,-0.0291681420058012,-0.01668412610888481,-0.030943065881729126,-0.016531674191355705,-0.03739739581942558,-0.07939963042736053,0.008160639554262161,-0.018482334911823273,-0.07498012483119965,0.021289916709065437,-0.041730526834726334,0.0023833499290049076,0.0335342101752758,0.005933444947004318,0.052410759031772614,-0.056797776371240616,0.01850312389433384,-0.031500622630119324,-0.0400412417948246,-0.026627007871866226,-0.014335127547383308,0.002596053062006831,-0.05360247194766998,0.04143444821238518,0.021417945623397827,-0.07065874338150024,0.06844975799322128,0.0871920958161354,0.054227687418460846,-0.008275273256003857,-0.04924889653921127,0.04849753528833389,-0.018535995855927467,0.05622590333223343,0.009587942622601986,0.04491783678531647,0.016390373930335045,0.03250360116362572,0.00048296188469976187,0.08213073015213013,0.005833438131958246,0.018473774194717407,0.08661512285470963,-0.06199558079242706,-0.05843638256192207,0.04458700120449066,-0.05395307019352913,0.0893883928656578,-0.019034333527088165,-0.03437569737434387,0.08844602108001709,0.06809922307729721,0.08588672429323196,0.041676122695207596,-0.039611708372831345,0.08784939348697662,-0.012327123433351517,0.03692023828625679,0.043568797409534454,-0.007139358203858137,0.028244318440556526,0.04241650179028511,0.017303504049777985,-0.05056954547762871,0.013734078034758568,0.06101047620177269,-0.03194635361433029,-0.006876604165881872,-0.020016079768538475,0.08506663888692856],[0.03090856783092022,0.018715979531407356,-0.0354062020778656,0.024795114994049072,-0.030995681881904602,0.0014640329172834754,-0.029245400801301003,0.031115775927901268,0.02653222531080246,-0.009577472694218159,0.018214119598269463,-0.05027492344379425,-0.0685896947979927,0.020193787291646004,0.007655104622244835,0.029179217293858528,0.10962282121181488,0.043435726314783096,-0.04197808355093002,0.05136926472187042,-0.06052523851394653,-0.021230386570096016,-0.003139619017019868,0.0788155272603035,-0.03422405198216438,-0.03801250085234642,-0.004492496605962515,-0.030541405081748962,0.0518440417945385,-0.04966985061764717,-0.05279615893959999,-0.020109502598643303,-0.022939246147871017,0.08875098079442978,0.043667662888765335,0.004020032472908497,-0.05636360123753548,0.03883829340338707,-0.04600125178694725,-0.07105378061532974,0.054629284888505936,0.014576238580048084,0.04235399141907692,0.014663522131741047,0.039414796978235245,-0.029929276555776596,-0.047557491809129715,0.03135402873158455,-0.03693721815943718,-0.03167835250496864,-0.020945027470588684,0.0007964286487549543,-0.01628068834543228,-0.06328500807285309,-0.029597239568829536,-0.1022738590836525,0.0287124365568161,-0.07370121777057648,-0.05079849064350128,0.0023993104696273804,-0.03400229662656784,0.07097376883029938,-0.05945463106036186,0.012283752672374249,-0.0018202195642516017,-0.05376599356532097,0.02406773529946804,-0.007890489883720875,0.0354987196624279,0.037872564047575,0.09949712455272675,0.06144963577389717,-0.01699790358543396,-0.01100015640258789,0.05057808384299278,0.030134333297610283,0.02937626838684082,-0.07437464594841003,-0.0011226970236748457,-0.03394199535250664,0.012884684838354588,-0.004505567718297243,0.04186789318919182,0.014590187929570675,0.03618410602211952,-0.02148647978901863,-0.043454136699438095,-0.018858371302485466,-0.0007848968962207437,0.017446963116526604,0.10391639918088913,-0.0019411928951740265,-0.04395868629217148,-0.015937719494104385,-0.02133241668343544,0.02214876562356949,-0.07086102664470673,0.0029053515754640102,0.007185348309576511,0.010662846267223358,-0.027451934292912483,-0.010931485332548618,-0.0654805526137352,-0.02268868312239647,-0.024953443557024002,0.019139476120471954,-0.05320185422897339,0.03596876189112663,0.06875848025083542,-0.09520398080348969,0.019634833559393883,0.03111761249601841,-0.029318219050765038,-0.018270572647452354,-0.006113414186984301,-0.0136616425588727,-0.014213256537914276,-0.07709375023841858,0.05300098657608032,0.049656596034765244,-0.0374041348695755,-0.067457415163517,0.023939331993460655,-0.026487121358513832,0.0065290904603898525,-0.014695344492793083,0.031833335757255554,0.031930677592754364],[-0.033338285982608795,-0.06380243599414825,-0.0729292780160904,0.028023380786180496,-0.05468744412064552,-0.02331080287694931,-0.02741122804582119,-0.0024225336965173483,-0.08900125324726105,0.008820297196507454,0.02416566014289856,0.0040668644942343235,-0.014273691922426224,0.0044136932119727135,0.018344981595873833,-0.12770333886146545,0.09007813781499863,0.017873141914606094,-0.030017169192433357,-0.017947083339095116,0.02270827628672123,-0.005338961724191904,-0.09340061247348785,0.09504029899835587,-0.004987529944628477,0.04692510887980461,-0.03174527734518051,0.07063625007867813,0.013261484913527966,0.027994463220238686,-0.0481465682387352,0.05607036501169205,0.031591545790433884,0.059878699481487274,-0.028886280953884125,-0.022129127755761147,0.10596782714128494,-0.048734765499830246,-0.006070795003324747,0.05227859690785408,0.00436689518392086,0.026829006150364876,-0.018372757360339165,0.01708885468542576,-0.06008386239409447,0.07625085860490799,-0.0053611621260643005,-0.03126218914985657,0.030810993164777756,-0.021181687712669373,-0.06141584366559982,-0.062075383961200714,0.03177865222096443,-0.007636361755430698,-0.00610857829451561,0.049320533871650696,-0.05199823155999184,-0.033817850053310394,-0.017631471157073975,0.0043402365408837795,-0.002001719316467643,-0.01322222501039505,-0.002814473817124963,-0.004936161916702986,-0.03319394215941429,-0.03769355267286301,0.012617000378668308,-0.040981411933898926,-0.053154997527599335,-0.014367478899657726,-0.0072516524232923985,0.10366960614919662,-0.03250206261873245,0.04331549257040024,0.0342661589384079,-0.05480894073843956,0.03529742732644081,-0.05445260927081108,-0.12251968681812286,0.028040828183293343,-0.08087058365345001,0.02073790319263935,-0.031440939754247665,0.07632827758789062,0.04912979528307915,-0.020968185737729073,-0.03159966692328453,-0.055840905755758286,-0.02028585411608219,-0.01287524402141571,-0.016623331233859062,0.007215180434286594,0.0268540158867836,0.01603648066520691,-0.03521403297781944,-0.06606334447860718,0.06276842951774597,-0.0318901501595974,-0.03000008314847946,-0.02428649179637432,-0.08474692702293396,-0.022059665992856026,-0.021915119141340256,0.02853115275502205,0.03219791501760483,0.00015849003102630377,0.04249794781208038,0.015888122841715813,-0.0007011769339442253,0.0074833291582763195,-0.008644486777484417,-0.01818414218723774,-0.01231320109218359,-0.05187823995947838,0.012898333370685577,-0.04544501751661301,0.038711026310920715,-0.011522576212882996,0.0022683264687657356,0.022713812068104744,0.029557151719927788,-0.07236992567777634,-0.009581545367836952,0.04051509127020836,-0.0781024694442749,0.017664697021245956,-0.10364751517772675,-0.047029342502355576],[0.000912811083253473,-0.07592853903770447,-0.0447375513613224,-0.06757167726755142,0.07644229382276535,0.007553810253739357,0.02608751691877842,-0.010422326624393463,-0.016224797815084457,-0.0729149729013443,-0.01308034174144268,-0.035024385899305344,0.039501119405031204,0.05180266499519348,0.06786876916885376,0.03860991448163986,-0.02694312296807766,-0.05241038277745247,0.035032276064157486,0.016998644918203354,-0.08130058646202087,0.016340747475624084,0.03746727481484413,0.003145586932078004,-0.009094449691474438,-0.03714543208479881,-0.06701820343732834,0.03661913797259331,-0.014021489769220352,-0.01069009117782116,0.07982444018125534,0.03258587419986725,0.016832444816827774,0.006276390515267849,0.0698113813996315,0.07907876372337341,0.04275083914399147,0.026857424527406693,-0.09556836634874344,0.005624499171972275,-0.005879890639334917,0.004806696902960539,0.043374814093112946,-0.12559887766838074,-0.02616734616458416,0.0121637973934412,-0.021209634840488434,-0.06518899649381638,0.04034886881709099,0.01210704818367958,-0.04487723484635353,0.015077441930770874,0.03832492232322693,-0.0011085444130003452,0.037210192531347275,0.0028583963867276907,-0.018486421555280685,-0.05357274413108826,-0.0035369403194636106,0.00893673300743103,0.039503064006567,-0.004991396330296993,0.020332150161266327,-0.044367801398038864,-0.03609656170010567,-0.00493428111076355,-0.0485568642616272,0.03773006796836853,0.02158690243959427,0.01282131765037775,0.015586421824991703,0.09291385114192963,-0.022080155089497566,-0.10093443840742111,0.008512207306921482,-0.0028291153721511364,-0.024034421890974045,-0.045033570379018784,-0.020368821918964386,0.00927406270056963,-0.023442452773451805,0.1106029823422432,-0.044174924492836,-0.03648081421852112,-0.10585755109786987,0.010747651569545269,-0.09243127703666687,-0.025431690737605095,-0.012568130157887936,-0.03252987191081047,0.08021841943264008,0.04575899615883827,0.0610356479883194,-0.03967493399977684,0.051623012870550156,0.023123828694224358,0.03548892214894295,0.047090474516153336,-0.04227283596992493,-0.020316634327173233,0.039534877985715866,-0.12223633378744125,0.06982871890068054,0.025441322475671768,-0.002018508967012167,0.009800011292099953,-0.048899807035923004,-0.01532897911965847,0.05085982754826546,0.059677645564079285,0.12421069294214249,-0.003262884682044387,-0.030310338363051414,-0.02354857325553894,-0.04682493954896927,-0.0030380256939679384,0.01759766787290573,-0.0019255690276622772,0.050417061895132065,-0.010772655718028545,-0.0161789208650589,-0.027691815048456192,-0.07455335557460785,-0.07201527059078217,-0.05423545837402344,0.059646040201187134,0.04143989458680153,0.06298454850912094],[-0.06177154928445816,-0.09046640992164612,-0.029756173491477966,0.007465125527232885,0.022468408569693565,0.04821997880935669,0.013037480413913727,0.08003547042608261,-0.010379442945122719,-0.04015875607728958,-0.07697857916355133,-0.04088764265179634,0.011137091554701328,-0.04179034009575844,0.0431700237095356,0.06476090848445892,-0.10799571126699448,0.03905845806002617,-0.10370565205812454,0.019573189318180084,0.056498151272535324,0.0029805528465658426,-0.058758363127708435,-0.02692372538149357,-0.013583987951278687,-0.008380548097193241,-0.010479352436959743,-0.004524684976786375,0.010059935972094536,-0.055300988256931305,-0.010248157195746899,0.07063109427690506,-0.0173964723944664,-0.020358135923743248,0.049781449139118195,-0.11776833236217499,0.054264865815639496,-0.02899748459458351,0.00951616931706667,0.004589580465108156,0.04287756606936455,-0.01106419786810875,-0.03118273802101612,0.059829242527484894,-0.10873991250991821,0.0005338917835615575,-0.06142331659793854,-0.03505099564790726,0.09265772998332977,-0.003276518313214183,0.008600092492997646,-0.08049152046442032,-0.03284106403589249,0.008678325451910496,0.01662021316587925,0.02646675333380699,0.0002572040830273181,0.023911628872156143,0.021408911794424057,-0.08415812999010086,0.0003760258841793984,0.035971175879240036,0.02656581811606884,-0.016786323860287666,-0.03701089322566986,-0.052016276866197586,-0.006060705054551363,0.052149731665849686,-0.08937619626522064,-0.03037470206618309,-0.05242447182536125,0.03603338450193405,-0.02620522677898407,-0.021645717322826385,-0.011110490188002586,0.020432913675904274,-0.01737959310412407,-0.14010626077651978,0.02339889109134674,0.021144123747944832,-0.011726046912372112,-0.05013807862997055,0.01610179990530014,0.017445307224988937,-0.021789083257317543,-0.010599114000797272,-0.04167382791638374,-0.009606501087546349,-0.07116423547267914,0.018669484183192253,-0.0423445925116539,0.011024276725947857,-0.06370753049850464,-0.02551029622554779,-0.005622108932584524,-0.07593511044979095,0.005299283657222986,-0.01821049675345421,-0.08026213198900223,-0.06173274666070938,0.027784135192632675,0.04043580964207649,-0.005880056880414486,0.018605882301926613,0.010569123551249504,0.01386573351919651,0.05666923522949219,-0.0685965046286583,0.03159665688872337,-0.01740044169127941,-0.011454031802713871,-0.013936646282672882,-0.01727246679365635,-0.056432731449604034,0.008508593775331974,0.0773162841796875,-0.0025958025362342596,-0.0012835153611376882,-0.031518109142780304,-0.005402768962085247,0.02069760113954544,-0.018272435292601585,-0.019077541306614876,0.01857740432024002,-0.042214080691337585,0.011054479517042637,0.0376574732363224,0.06323276460170746],[-0.006772198248654604,0.06334436684846878,0.050005171447992325,-0.0473310761153698,-0.056710001081228256,-0.014013520441949368,0.047259848564863205,-0.0029916339553892612,-0.0277946125715971,0.07405281811952591,0.013255043886601925,-0.10673453658819199,0.014598753303289413,0.02173360250890255,0.010610065422952175,0.021900098770856857,-0.0012318150838837028,-0.059915028512477875,-0.018891865387558937,-0.041501276195049286,-0.04280230402946472,-0.05809354409575462,0.020846812054514885,0.003945657983422279,-0.023969555273652077,-0.02986806072294712,-0.003448211122304201,0.04952985420823097,-0.09152906388044357,0.018147898837924004,-0.023368284106254578,-0.08759251981973648,-0.08782073110342026,-0.041296444833278656,0.010363674722611904,0.0180037934333086,-0.04327288269996643,0.046817533671855927,0.0694941058754921,0.0184792373329401,-0.027691589668393135,0.05337904766201973,0.034746091812849045,0.03906194120645523,-0.030301610007882118,-0.1304081827402115,0.09824256598949432,-0.07404498010873795,-0.002668237779289484,0.10779383033514023,0.014287975616753101,0.048350490629673004,-0.0677361935377121,-0.08107832819223404,-0.02460397593677044,0.047901369631290436,-0.01638961397111416,-0.03615552932024002,0.009710988029837608,0.04977156221866608,-0.0685395747423172,-0.05286138504743576,-0.0351497046649456,0.05030221492052078,0.010823230259120464,0.09743726998567581,0.043080296367406845,-0.0012420747661963105,0.05867647007107735,0.009717163629829884,-0.032416727393865585,0.031482797116041183,-0.03345562145113945,-0.012157785706222057,0.059748899191617966,-0.00452801026403904,-0.035003334283828735,-0.021359039470553398,0.04424205422401428,-0.024294324219226837,-0.020031476393342018,-0.02328488416969776,0.008194885216653347,-0.017685312777757645,-0.07292963564395905,-0.04259222373366356,-0.04072508588433266,0.05450015142560005,0.03750399500131607,0.026145201176404953,-0.022814230993390083,-0.03783532604575157,-0.023098882287740707,-0.04405706003308296,0.11438675224781036,-0.10345365107059479,0.025939662009477615,-0.059107642620801926,-0.0054064407013356686,-0.04668664187192917,-0.053976546972990036,-0.053306903690099716,0.08107798546552658,-0.0061170137487351894,-0.034999024122953415,0.021784981712698936,-0.003980916924774647,0.03364252299070358,-0.08189976215362549,0.013590702787041664,0.03275460749864578,-0.07582046091556549,0.02064516954123974,0.0779205709695816,-0.0003558696189429611,0.03861290216445923,0.03086039423942566,-0.036061037331819534,0.0019327832851558924,-0.07207299768924713,-0.02151833474636078,0.010049030184745789,0.03685540705919266,0.0009312948095612228,0.033081360161304474,-0.05012553930282593,-0.0041890824213624,0.0015874929958954453],[0.07984244078397751,-0.011703320778906345,-0.018204767256975174,-0.0031287423335015774,-0.04405989497900009,0.008888524025678635,-0.016989469528198242,-0.08134876191616058,-0.0028074230067431927,-0.012082748115062714,-0.07604219764471054,-0.003089005360379815,0.06831152737140656,0.019981658086180687,0.028321005403995514,-0.057830002158880234,0.02474018931388855,0.01252651121467352,0.020582910627126694,0.02130107767879963,-0.06234797462821007,-0.0018977917497977614,-0.03484318032860756,-0.004606663715094328,-0.0452674999833107,0.060458023101091385,-0.04254378378391266,-0.04195878282189369,0.00498080113902688,-0.047237228602170944,-0.017672481015324593,-0.043488290160894394,0.06731192022562027,0.038897812366485596,-0.002205104101449251,-0.018046239390969276,0.04311836138367653,0.018580056726932526,0.029439585283398628,-0.0011015549534931779,-0.07905206829309464,-0.003505801083520055,-0.024490462616086006,0.029250359162688255,0.046145617961883545,-0.02823529951274395,0.02493528462946415,0.0801994577050209,-0.03463446721434593,0.0774889886379242,-0.04109280928969383,0.011687631718814373,0.0012758910888805985,0.004683951381593943,-0.039574407041072845,-0.02905292622745037,-0.03365354612469673,0.016040030866861343,0.015655677765607834,0.1023869663476944,0.06250970810651779,-0.016512064263224602,0.021516157314181328,0.04580521583557129,0.001363305258564651,-0.006777788978070021,0.002356758341193199,0.039977263659238815,-0.03936317563056946,-0.015016850084066391,0.021641600877046585,0.014237248338758945,0.007263475563377142,-0.01401438657194376,0.04342052340507507,0.10016115009784698,0.019991276785731316,-0.009045742452144623,0.02834092639386654,-0.025295322760939598,-0.0373053140938282,0.0034851818345487118,-0.11930888891220093,-0.05298950523138046,-0.011038385331630707,-0.06569692492485046,-0.043903082609176636,-0.026218395680189133,-0.07570192217826843,-0.01972128078341484,-0.026491954922676086,-4.516627450357191e-05,0.0521940141916275,0.015488908626139164,0.000350500107742846,0.004131359048187733,0.010401240549981594,-0.04475139454007149,-0.004348497837781906,0.014427746646106243,-0.06098088249564171,0.03894320875406265,0.051251593977212906,-0.02905186638236046,-0.011462192051112652,-0.04933832213282585,0.024447670206427574,-0.04886787384748459,-0.004812093451619148,-0.04073766618967056,-0.0025848355144262314,-0.08221619576215744,0.06120223179459572,-0.04450881481170654,0.0040897768922150135,-0.008292663842439651,-0.034822966903448105,-0.049295853823423386,0.043199554085731506,-0.02417660504579544,0.012063485570251942,-0.04001011699438095,-0.02423928678035736,0.020199114456772804,0.0426945835351944,-0.004861459136009216,-0.06340497732162476,0.09207962453365326],[-0.04258757829666138,-0.08017247915267944,0.12253560870885849,-0.025051360949873924,-0.07328005135059357,-0.0314025953412056,0.016407275572419167,0.01072976365685463,-0.039208102971315384,0.08780694007873535,-0.028072698041796684,-0.05449729785323143,0.04385942593216896,0.05553276836872101,-0.038400713354349136,-0.06212151050567627,0.05293925106525421,-0.0847368985414505,-0.06031753867864609,0.044687919318675995,-0.002112708752974868,-0.012118958868086338,0.016247021034359932,-0.012341159395873547,-0.06099528819322586,0.05885259807109833,0.058701202273368835,0.015055741183459759,0.004276724997907877,0.11366035044193268,-0.008735563606023788,-0.01721169799566269,0.018403248861432076,0.07338540256023407,0.07493158429861069,-0.011932793073356152,0.014016857370734215,-0.0632627084851265,-0.0033100773580372334,-0.037589386105537415,-0.05129289627075195,0.07892411947250366,-0.03645719215273857,-0.020491234958171844,0.015752531588077545,0.06496486067771912,0.03180799260735512,0.12754668295383453,-0.012247317470610142,0.014404731802642345,0.00905804242938757,0.08114339411258698,0.024330809712409973,0.0013471943093463778,-0.042747147381305695,0.0062900022603571415,0.056322816759347916,-0.018896130844950676,0.02678854577243328,0.011324137449264526,0.04125170037150383,-0.026111962273716927,0.12103072553873062,-0.058924879878759384,-0.016937680542469025,0.031615249812603,0.013679838739335537,0.03828747570514679,-0.023323018103837967,-0.003550804452970624,0.0005686333170160651,0.07139663398265839,0.024425242096185684,0.03939360752701759,-0.03347795456647873,0.046557072550058365,0.010309228673577309,0.0638839602470398,0.0780947357416153,-0.014926737174391747,-0.021400107070803642,-0.03320297598838806,-0.007331270258873701,-0.01746802218258381,0.027131278067827225,-0.011594537645578384,-0.00983371865004301,0.034689005464315414,-0.04326517507433891,0.017163190990686417,-0.02045813389122486,0.03175491839647293,0.06884027272462845,-0.005482980515807867,0.018715735524892807,0.01124841719865799,-0.03694864735007286,0.012441541999578476,0.017575640231370926,0.01807282119989395,-0.005865388549864292,0.0013809273950755596,-0.04766888543963432,-0.01647568680346012,0.024666380137205124,0.026143699884414673,-0.03429775685071945,0.004744674079120159,0.020659206435084343,0.008437342941761017,0.016851553693413734,-0.083841472864151,-0.002076743170619011,0.011452128179371357,-0.041742343455553055,0.07993859052658081,0.007312986068427563,0.05862721428275108,-0.036261338740587234,-0.041731804609298706,0.009030374698340893,-0.08246137201786041,0.020238306373357773,-0.00035667550400830805,0.04657367244362831,0.035183634608983994,-0.018165243789553642,-0.047668129205703735],[0.08221438527107239,-0.0541127510368824,-0.04834328964352608,-0.05471428483724594,0.041382595896720886,-0.023838648572564125,-0.03575578331947327,0.010174049995839596,-0.009038547985255718,-0.02102375589311123,0.026215283200144768,0.04898325726389885,0.04493403062224388,0.029327373951673508,0.015477465465664864,-0.08919661492109299,0.08666028082370758,0.019091593101620674,0.027243580669164658,0.04658548906445503,0.06644994020462036,0.019232941791415215,0.019878048449754715,-0.03530427813529968,0.005502655636519194,-0.039087243378162384,-0.03341042995452881,-0.021486757323145866,-0.005915103014558554,0.06025005131959915,0.15471117198467255,0.012803997844457626,-0.06232444941997528,0.06557740271091461,-0.009833448566496372,-0.030504614114761353,0.00970130693167448,-0.05665677785873413,0.025151338428258896,0.0012615955201908946,-0.004468696191906929,0.018311133608222008,0.0028672614134848118,0.012964013032615185,0.012029606848955154,0.026389524340629578,-0.030304409563541412,-0.06508972495794296,-0.01739106886088848,-0.06199377030134201,-0.0022028873208910227,0.057961929589509964,0.02658005617558956,-0.04449570178985596,-0.031702715903520584,0.004800067283213139,-0.03149063140153885,-0.01665572077035904,0.035695385187864304,-0.04540771245956421,-0.01692601665854454,-0.025967082008719444,-0.03281254321336746,-0.03962463140487671,0.030840901657938957,-0.017192579805850983,-0.04031737893819809,-0.009569196030497551,-0.07406236976385117,-0.03381563350558281,0.0988810732960701,-0.0063955048099160194,0.023297173902392387,-0.0019101405050605536,0.008634326979517937,0.026145754382014275,-0.051465801894664764,-0.0012467714259400964,0.05246837064623833,-0.033951666206121445,-0.030040176585316658,-0.0022167654242366552,0.011343119665980339,0.024332066997885704,0.06966696679592133,0.015692871063947678,0.007276325020939112,0.033329688012599945,0.034670859575271606,-0.07429976016283035,0.11674361675977707,0.08109218627214432,0.010709512047469616,0.022548550739884377,0.05845943093299866,0.0029919068329036236,0.03348331153392792,0.04975927993655205,-0.04145224392414093,-0.03435107693076134,0.044545553624629974,0.014465014450252056,0.05267960578203201,-0.006006489507853985,-0.014488675631582737,-0.10802170634269714,-0.07583071291446686,0.0028137683402746916,0.05168699473142624,0.024327510967850685,-0.015510634519159794,-0.012893594801425934,0.009827272966504097,0.0044114850461483,0.07297435402870178,0.01212045643478632,-0.0691099464893341,-0.07380971312522888,0.06970956176519394,-0.05387571081519127,0.03250519931316376,-0.022177819162607193,0.008737904950976372,-0.016338160261511803,0.056155186146497726,-0.01239179726690054,-0.007511650677770376,-0.06231500208377838],[0.013781137764453888,-0.0044899857603013515,0.004014497622847557,0.06309852749109268,-0.011464596726000309,0.013852308504283428,0.07331687957048416,-0.06570954620838165,-0.020546862855553627,0.07117120921611786,0.029667358845472336,0.031170712783932686,0.03770579770207405,0.010172562673687935,0.06813561171293259,0.007672457955777645,0.02606227807700634,0.012373901903629303,0.012663835659623146,-0.062389977276325226,0.03561857342720032,-0.006093219853937626,0.0841650664806366,-0.01455050241202116,0.026412971317768097,0.011435833759605885,-0.026868510991334915,0.07219716906547546,0.08322238177061081,0.014856431633234024,-0.0030013923533260822,-0.01021039392799139,-0.07977406680583954,0.006065721157938242,0.019180113449692726,0.04789699241518974,0.04487159848213196,-0.018585169687867165,0.010821682401001453,0.06149999797344208,-0.01874547451734543,-0.027590380981564522,0.06333180516958237,0.06379543989896774,0.0011866450076922774,-0.01971472054719925,-0.0752362534403801,0.02709050662815571,-0.06828611344099045,-0.083468958735466,0.06538237631320953,0.042049892246723175,-0.058580271899700165,-0.04897480085492134,0.05306975916028023,-0.043105531483888626,0.04040231183171272,0.02863655611872673,0.039790812879800797,0.01861491985619068,0.01227552443742752,0.0582205131649971,0.012986867688596249,0.003763932269066572,0.034289900213479996,-0.000610942835919559,-0.05506844446063042,-0.0214993916451931,0.016306722536683083,-0.018644066527485847,0.08158282935619354,-0.022940298542380333,-0.013141694478690624,0.03985927253961563,0.00840459018945694,-0.007013547234237194,-0.03172249719500542,0.014120876789093018,0.030110664665699005,0.024694889783859253,-0.046998511999845505,0.10099994391202927,-0.06703402101993561,-0.0724334642291069,0.05466613173484802,-0.004587316885590553,-0.01185285858809948,-0.07244894653558731,0.1078769639134407,-0.0031912534032016993,0.016856644302606583,0.016176939010620117,0.04652595520019531,0.020842961966991425,0.03075108304619789,-0.003847789717838168,-0.013398067094385624,-0.08089784532785416,-0.04002830386161804,0.0032643256708979607,0.05217325687408447,0.02083882875740528,0.0014434978365898132,-0.058369047939777374,-0.12928526103496552,0.03594111278653145,-0.0466960184276104,-0.021307984367012978,0.023194003850221634,-0.06723873317241669,-0.029340149834752083,0.08892945200204849,0.02281702496111393,0.0162821002304554,-0.06257198005914688,0.12141171842813492,-0.0674908310174942,0.06291840225458145,-0.09786293655633926,0.06461837887763977,0.0700518935918808,-0.04626378044486046,0.04159274697303772,0.011927273124456406,-0.03767617419362068,-0.0707472637295723,-0.06604444235563278,0.03846696764230728],[0.003153274767100811,-0.07109182327985764,0.026570890098810196,0.02639300562441349,-0.05126523971557617,-0.05506399646401405,0.020406775176525116,-0.01577303372323513,0.005301641300320625,0.03731800243258476,0.00024000124540179968,-0.039741162210702896,0.006046476308256388,-0.04029745236039162,0.06699312478303909,-0.021666819229722023,0.011837120167911053,0.03491761162877083,0.01709067076444626,-0.11826485395431519,-0.06629233062267303,-0.020705532282590866,0.017054414376616478,-0.028500590473413467,-0.012134131975471973,-0.06154719367623329,-0.0007414310821332037,0.005555482115596533,0.014975654892623425,-0.001798141049221158,0.02483268827199936,-0.048617444932460785,-0.00581063749268651,0.010158639401197433,-0.0282187070697546,0.0267583467066288,-0.03650413826107979,-0.023316796869039536,-0.00017800666682887822,-0.0397937037050724,-0.01857147365808487,-0.0495915524661541,-0.01930791139602661,0.012591865845024586,-0.03656300529837608,0.007894527167081833,0.08002439141273499,-0.0026476127095520496,0.006585689727216959,0.04159407317638397,0.03300505876541138,-0.02518431842327118,-0.005773112177848816,0.03833804279565811,-0.02658267877995968,0.005247387103736401,-0.09719977527856827,0.07796069979667664,-0.03447931259870529,0.06191013753414154,0.01068374514579773,-0.013737285509705544,0.09551453590393066,-0.02994409017264843,0.02577309124171734,-0.047175440937280655,0.02114144153892994,-0.04455854371190071,0.03537861630320549,0.022798534482717514,-0.04230007901787758,0.11007409542798996,0.025399647653102875,0.11876632273197174,0.08630148321390152,0.028729531913995743,-0.02126186713576317,-0.016160504892468452,-0.07927723228931427,-0.061396967619657516,0.003816671436652541,0.10529940575361252,-0.034536708146333694,0.03990345075726509,-0.027023324742913246,-0.03547540679574013,-0.01667758822441101,0.010422946885228157,0.021348753944039345,0.041295092552900314,-0.0049988459795713425,0.012389079667627811,0.03829459846019745,0.04315316304564476,-0.02668105624616146,0.03965391218662262,-0.08497429639101028,0.03772867098450661,-0.03199322894215584,0.020632833242416382,0.06105132773518562,0.01350465975701809,0.06865143030881882,0.06607608497142792,0.01620667427778244,0.04691185802221298,0.005319726653397083,-0.009315012022852898,-0.007853883318603039,0.03544275090098381,0.009809915907680988,-0.043221425265073776,0.006599818356335163,0.049399059265851974,0.004954685922712088,-0.020140698179602623,0.002883830340579152,-0.12075374275445938,0.03663845360279083,-0.019367795437574387,-0.019434431567788124,0.05191977322101593,-0.05552443489432335,0.07092192023992538,-0.02335967682301998,-0.009267629124224186,0.05412885174155235,0.039072081446647644],[0.10932283848524094,-0.036667127162218094,-0.023101195693016052,-0.08368836343288422,-0.017646022140979767,-0.0330670103430748,-0.02412491850554943,-0.08004450798034668,0.07760016620159149,-0.10763721913099289,-0.12623292207717896,-0.054798368364572525,-0.029889903962612152,-0.050033461302518845,0.05253611132502556,0.023335328325629234,-0.024338755756616592,0.08529528975486755,0.009005911648273468,0.013322720304131508,-0.05068985000252724,-0.024915525689721107,0.03337275981903076,-0.11920899152755737,-0.031144676730036736,0.023866524919867516,0.00030393071938306093,0.03433884307742119,0.044155288487672806,-0.05069056525826454,-0.013325710780918598,0.026049785315990448,-0.0005426160641945899,-0.028752300888299942,0.03987516090273857,0.02683347463607788,0.025418158620595932,0.03372114151716232,-0.15530550479888916,0.06227906420826912,0.09446318447589874,0.010022393427789211,0.006756688002496958,0.04175706207752228,0.01440751738846302,0.04909825697541237,0.02067739889025688,-0.03602520003914833,-0.060196224600076675,-0.01709912158548832,-0.06217583641409874,-0.04707540199160576,0.07831353694200516,0.07722491770982742,-0.04549899324774742,0.024921955540776253,-0.014376409351825714,-0.02540704794228077,-0.009104641154408455,0.0357491560280323,0.0449909083545208,0.02187046967446804,0.10322935879230499,-0.013565976172685623,0.012856303714215755,-0.03560764342546463,-0.002790805185213685,-0.018402395769953728,-0.04475027322769165,0.008132456801831722,0.026092899963259697,-0.0054156119003891945,0.015827631577849388,-0.02457336336374283,-0.03723159059882164,0.07868083566427231,0.003776561003178358,0.006638227496296167,0.06083677336573601,-0.001070733298547566,0.12358276546001434,-0.004373381845653057,-0.04418163001537323,-0.0345943309366703,0.022449718788266182,0.036605753004550934,-0.10577575862407684,0.06608348339796066,-0.010786128230392933,-0.00445361714810133,-0.07908545434474945,-0.004265638999640942,0.006178971845656633,-0.02886633388698101,0.012873121537268162,-0.03709105774760246,-0.04463540390133858,0.04507166147232056,0.03496403247117996,0.035886187106370926,0.06651919335126877,-0.0442940928041935,-0.019962793216109276,0.05531198903918266,-0.07079385221004486,-0.0613139346241951,0.07082272320985794,0.00564905721694231,0.0071558961644768715,-0.006466412916779518,0.014434227719902992,-0.02877417579293251,0.06199580058455467,-0.022523194551467896,-0.006130203604698181,0.08624733239412308,-0.002798405010253191,0.08677539229393005,-0.0032368176616728306,0.06284199655056,-0.06550003588199615,0.034795138984918594,-0.10474228113889694,0.035186950117349625,-0.05778266489505768,0.04940050095319748,0.019222520291805267,-0.0658794492483139],[-0.0630728080868721,-0.013578798621892929,0.06396637111902237,-0.04321211576461792,0.025372153148055077,-0.0025185158010572195,0.037386298179626465,-0.09618600457906723,-0.018879780545830727,0.054814040660858154,0.0223813746124506,-0.0040848106145858765,-0.0207942146807909,0.04537777975201607,0.015636688098311424,0.03465459495782852,0.014794777147471905,0.07776828855276108,-0.013287068344652653,0.08887049555778503,-0.0009978956077247858,0.012960495427250862,-0.02787662483751774,0.023930955678224564,0.04856573045253754,-0.02916603907942772,-0.06578829139471054,0.034538690000772476,0.011642980389297009,0.007043557241559029,-0.008509457111358643,0.015487691387534142,0.045375313609838486,-0.04305148869752884,-0.04847830533981323,0.0017061593243852258,-0.07311193645000458,-0.06329891830682755,0.11187154799699783,0.05536583811044693,-0.002332970267161727,0.06850019097328186,-0.049866851419210434,-0.025402594357728958,0.028301822021603584,0.03974936902523041,0.03397217020392418,-0.11599321663379669,-0.012785417959094048,0.007480919361114502,-0.019965386018157005,0.11845080554485321,0.0339120477437973,0.05937828868627548,-0.0632418617606163,-0.03928113356232643,0.032959144562482834,0.04502890631556511,0.021361179649829865,0.047469910234212875,-0.05248061195015907,0.04485207051038742,-0.06912752240896225,-0.02570207044482231,0.019714493304491043,-0.02457020990550518,-0.04665553942322731,-0.04202596843242645,-0.08257608115673065,0.024011701345443726,0.058143556118011475,-0.005122978240251541,-0.02194112539291382,-0.07906942069530487,0.036354485899209976,0.11607123911380768,-0.07666973024606705,-0.04601234570145607,-0.07895078510046005,-0.01945933885872364,-0.0008155254181474447,0.04954458028078079,0.044942159205675125,0.025261033326387405,-0.009040827862918377,-0.022362399846315384,-0.018725182861089706,0.06760260462760925,-0.0026807417161762714,-0.024707188829779625,0.035535749047994614,0.04017748311161995,-0.0318298302590847,0.08742430806159973,0.004636599216610193,-0.009672379121184349,0.017565937712788582,-0.007659359369426966,0.04437730088829994,-0.0407496802508831,-0.03858020529150963,-0.003256418975070119,-0.02233857475221157,-0.04488483816385269,0.0057070436887443066,0.04224824160337448,-0.022154010832309723,-0.015767298638820648,0.00702202832326293,0.11005991697311401,-0.08060521632432938,0.022015485912561417,0.00941718090325594,0.03618583083152771,0.051047250628471375,-0.02412467449903488,-0.0809444934129715,0.03047703020274639,-0.035472288727760315,-0.04366852715611458,0.05501456931233406,-0.030855892226099968,0.05659953132271767,0.029097596183419228,0.012586024589836597,0.014808726496994495,-0.06364073604345322,-0.060348980128765106],[0.03983526676893234,0.05925678089261055,0.010694419033825397,-0.06879357993602753,-0.018556231632828712,-0.003654539119452238,-0.04635404422879219,0.0447116382420063,-0.0816757008433342,0.029431918635964394,0.04599650949239731,0.04632757604122162,-0.046854034066200256,1.3666483937413432e-05,0.1004590317606926,0.06853532791137695,-0.030508995056152344,0.06505214422941208,-0.0292867012321949,0.11264362186193466,0.046338971704244614,-0.00398442754521966,0.012147627770900726,-0.009686850942671299,0.03259248659014702,-0.06486471742391586,-0.0899980440735817,0.07295610755681992,0.12157820165157318,0.021580196917057037,0.006555086933076382,0.013892275281250477,-0.03390993922948837,-0.011654483154416084,-0.002308744005858898,0.026957569643855095,-0.07219382375478745,-0.023901311680674553,0.030905529856681824,-0.0033463637810200453,-0.03792798891663551,0.0989798754453659,0.0004869529220741242,-0.05761626362800598,-0.07901054620742798,0.030528796836733818,0.04331487789750099,-0.015493643470108509,-0.020047497004270554,-0.016075966879725456,-0.037901412695646286,-0.02834436669945717,-0.008616309612989426,0.009646826423704624,-0.0055109732784330845,-0.0006943377084098756,0.006036141887307167,-0.05603639408946037,0.04527342692017555,-0.04327146336436272,-0.03754029422998428,-0.025769054889678955,-0.03822734206914902,-0.01252871286123991,0.02028963528573513,-0.0126933753490448,-0.04468318447470665,0.06121531501412392,0.09098489582538605,0.07832232117652893,0.007025373633950949,0.08692017197608948,0.008972999639809132,-0.038591280579566956,0.026491092517971992,0.024700770154595375,-0.022126484662294388,-0.038666967302560806,0.0031695545185357332,-0.10167891532182693,0.03244037181138992,-0.10479576885700226,-0.09989770501852036,-0.08419957011938095,0.12537804245948792,0.048726703971624374,0.012315581552684307,0.047337256371974945,0.046512383967638016,-0.05892104655504227,0.08690932393074036,0.010493187233805656,-0.0018035868415609002,0.024806944653391838,0.06673118472099304,-0.052465394139289856,0.015775321051478386,8.924806024879217e-06,-0.014689804054796696,-0.0578295923769474,0.00824671983718872,0.02879224345088005,0.030149132013320923,0.026771986857056618,-0.04331961274147034,0.07747644931077957,0.00976837519556284,-0.039127811789512634,-0.02760583907365799,0.05561193451285362,-0.024808038026094437,0.036238301545381546,0.0504310205578804,0.0030935450922697783,-0.02501334249973297,-0.04996443912386894,-0.00025077458121813834,0.09870589524507523,-0.07236702740192413,-0.006529784295707941,-0.020452482625842094,0.026279229670763016,-0.12614960968494415,0.06052234023809433,-0.0014118304243311286,-0.0663282498717308,-0.03160284087061882,0.042601920664310455],[-0.04744409769773483,0.04233675077557564,-0.02895687147974968,-0.05184889957308769,-0.009901680052280426,0.00856703706085682,-0.023810453712940216,0.015252485871315002,0.034390486776828766,-0.008225337602198124,0.09191790968179703,0.06715723127126694,-0.020420938730239868,-0.03752214461565018,-0.07376206666231155,0.02787662297487259,-0.05458467826247215,0.06385329365730286,-0.10341982543468475,-0.0034780229907482862,0.04568128660321236,-0.033603593707084656,-0.03531113266944885,-0.05882298946380615,0.10015171766281128,-0.035095181316137314,-0.07745986431837082,-0.026337379589676857,-0.012521191500127316,-0.011726806871592999,0.041810985654592514,-0.03631158173084259,-0.05146465077996254,-0.09323691576719284,-0.0038688378408551216,8.474178321193904e-05,0.06883165240287781,0.003545919666066766,-0.024423088878393173,-0.020811541005969048,0.0028627528809010983,-0.014496910385787487,-0.017547927796840668,-0.07755298912525177,0.023265862837433815,-0.00914108194410801,0.004746962804347277,-0.08232130110263824,0.04861700162291527,0.006718585267663002,-0.036415938287973404,0.06783554702997208,-0.05916023999452591,0.05366838723421097,-0.02799053303897381,-0.08022543787956238,0.05505303293466568,0.09113077819347382,-0.02433099038898945,-0.021319076418876648,0.01370845828205347,-0.03244782239198685,-0.08050661534070969,-0.020289845764636993,0.06402622163295746,0.04186522960662842,-0.024088263511657715,-0.008734961971640587,-0.061017926782369614,-0.027491359040141106,-0.028990671038627625,-0.04798057675361633,0.0239980760961771,-0.02518368326127529,0.03321202099323273,-0.003132239682599902,0.022292515262961388,-0.02994263730943203,0.01166493259370327,-0.03259740024805069,-0.01949881762266159,-0.10565435141324997,0.008821092545986176,-0.032959215342998505,0.034584008157253265,0.03635606914758682,0.04751367121934891,-0.0027000792324543,0.02569749765098095,-0.019707057625055313,0.060352593660354614,0.08041632920503616,-0.030126890167593956,0.036380574107170105,-0.06195397302508354,0.05030794069170952,-0.020952602848410606,0.047405581921339035,-0.018484478816390038,0.07156491279602051,-0.019834816455841064,1.855084155977238e-05,-0.012341036461293697,-0.012359274551272392,0.06778478622436523,-0.076178178191185,0.016411565244197845,0.04774642363190651,-0.020300719887018204,0.0035465029068291187,-0.02964376099407673,-0.06518980860710144,0.001350614009425044,0.009853138588368893,0.01887553744018078,-0.07872625440359116,-0.02481391280889511,0.005509300623089075,0.06198127195239067,-0.0963333249092102,0.011363946832716465,-0.008267841301858425,0.05033392831683159,0.008963322266936302,0.06623772531747818,-0.0705028772354126,-0.001998385414481163,0.018965162336826324],[0.0796310305595398,-0.0471486859023571,-0.008693670853972435,-0.02424895577132702,-0.03865480795502663,0.05603433772921562,-0.01793218031525612,0.08789916336536407,0.04594608396291733,0.05572333186864853,0.05577901005744934,-0.048947278410196304,-0.02085495926439762,0.015950558707118034,0.03328508883714676,0.09578400105237961,-0.0427096001803875,-0.00021771508909296244,0.009413279592990875,-0.015489058569073677,0.04188695549964905,0.05524482578039169,0.020999480038881302,-0.0025554103776812553,-0.03125252202153206,0.026985418051481247,-0.022501742467284203,0.09903290122747421,-0.028463564813137054,-0.04736815765500069,-0.04388251528143883,-0.02813524752855301,-0.0913136899471283,-0.04244821146130562,-0.03287384286522865,0.002125282073393464,0.01941981539130211,-0.05716012045741081,0.05564316734671593,0.10445939004421234,-0.0036390721797943115,0.08285360038280487,0.00735698826611042,0.06650706380605698,0.050989095121622086,-0.07785335928201675,0.007565617095679045,0.04644375294446945,0.03017432428896427,-0.022496171295642853,0.05808421969413757,-0.021261263638734818,-0.002043889369815588,0.057561106979846954,-0.029254352673888206,-0.03370654210448265,0.0732673928141594,0.02315104380249977,-0.06028853729367256,-0.050829071551561356,-0.05385929346084595,-0.026339128613471985,-0.04811299592256546,-0.0390462763607502,-0.028831180185079575,-0.06786789000034332,0.019560232758522034,-0.0053864442743361,-0.0731164962053299,0.001188018242828548,0.06199772655963898,-0.030013997107744217,0.05774439126253128,-0.02406858466565609,0.008215882815420628,0.021971797570586205,0.08883419632911682,0.01022525504231453,-0.08835785835981369,-0.05886891111731529,-0.07713549584150314,-0.10559095442295074,-0.0017802700167521834,-0.04330948740243912,0.018129894509911537,0.006497884634882212,-0.01905553601682186,-0.03182543069124222,0.03323616087436676,0.04186592623591423,0.05945099890232086,-0.04328390583395958,0.04769894480705261,0.06404783576726913,0.018181132152676582,-0.03415954113006592,0.02977490983903408,0.01202505175024271,-0.08778228610754013,0.005400771740823984,-0.08975056558847427,-0.0002724819059949368,-0.016279086470603943,0.054521143436431885,-0.011416792869567871,-0.05598835274577141,-0.019116848707199097,0.059927914291620255,-0.014184965752065182,0.010761172510683537,0.010163201950490475,0.013064215891063213,-0.0006766910664737225,0.04730498418211937,0.08180560171604156,-0.005604495294392109,-0.016186634078621864,0.06851700693368912,0.05739596113562584,0.032821059226989746,-0.053460001945495605,0.014696340076625347,-0.0396808423101902,0.006817313842475414,0.009097065776586533,0.015072566457092762,-0.02682432159781456,0.07691503316164017],[-0.08393865823745728,0.023378124460577965,-0.100589819252491,-0.0029006176628172398,-0.03938312083482742,0.04044278338551521,0.000867143040522933,0.00335443252697587,-0.046196237206459045,-0.06011851504445076,0.02476390451192856,0.02670762501657009,0.13275425136089325,0.0073780096136033535,0.051373083144426346,-0.034071631729602814,-0.0886940136551857,0.04372376576066017,-0.06806346029043198,0.05271444097161293,-0.017938196659088135,0.06357493251562119,0.07083632797002792,0.009483302012085915,0.03732186555862427,-0.0022494306322187185,0.03416803106665611,0.0031616685446351767,0.0015941103920340538,0.0196656733751297,0.04533901810646057,0.011869718320667744,0.014307168312370777,0.013494880869984627,-0.05027870088815689,-0.04908423870801926,0.015530955977737904,-0.062435559928417206,-0.04723842814564705,0.07693985849618912,0.10249796509742737,-0.08955831825733185,0.07245784252882004,-0.007636397611349821,-0.00200933450832963,0.006613987497985363,0.06245878338813782,-0.07413084805011749,0.022186890244483948,-0.0263680350035429,0.02731155976653099,0.07286150008440018,0.0020608173217624426,0.05612775683403015,-0.0006899635191075504,-0.008518148213624954,0.06296518445014954,0.0850377306342125,0.011227835901081562,0.00335535011254251,0.010264253243803978,-0.032962866127491,0.12617141008377075,0.06393781304359436,-0.004131953231990337,-0.08445143699645996,-0.13096292316913605,-0.054839812219142914,-0.026581138372421265,0.0640319287776947,-0.030009552836418152,0.016430631279945374,0.0542341023683548,0.014900767244398594,0.008020984008908272,-0.005754077807068825,-0.07695212960243225,0.02320726215839386,-0.01838148944079876,-0.023466508835554123,-0.00896666944026947,0.021133968606591225,-0.03637088090181351,-0.014971833676099777,0.12716205418109894,-0.017806388437747955,-0.01565307192504406,-0.016158264130353928,0.020470265299081802,0.05261002108454704,-0.03949045389890671,-0.016712160781025887,-0.011747338809072971,0.018868770450353622,-0.03378677740693092,-0.02243531495332718,-0.11162863671779633,-0.048262547701597214,0.03521409258246422,0.05440297722816467,0.028843466192483902,-0.05405538156628609,-0.05320626124739647,0.006631496828049421,-0.08046050369739532,0.042400747537612915,0.028353409841656685,-0.07606528699398041,-0.0515357181429863,-0.029319316148757935,-0.023823261260986328,-0.08249194920063019,-0.040777336806058884,-0.0366993248462677,-0.03179111331701279,0.050104331225156784,0.0008568960474804044,-0.05966634303331375,-0.01369543094187975,-0.04064497724175453,-0.00917414203286171,0.06672519445419312,-0.020274629816412926,0.11190805584192276,0.015154755674302578,-0.0053910971619188786,0.07098118960857391,0.03782638907432556],[0.04730585217475891,-0.09265035390853882,-0.024296950548887253,0.050423722714185715,-0.07674150168895721,-0.022936811670660973,-0.06923285126686096,-0.03800952062010765,-0.04525104537606239,0.0065280781127512455,-0.02563159354031086,-0.03976663574576378,-0.04923400655388832,0.010899822227656841,-0.001023608259856701,0.07543953508138657,0.008435063064098358,-0.029649710282683372,-0.02210177294909954,0.007954053580760956,-0.028525952249765396,0.07951653003692627,-0.048190221190452576,0.012107806280255318,0.00875290296971798,-0.02317759022116661,0.078345887362957,0.0021682216320186853,0.029140030965209007,0.029202422127127647,0.006935104262083769,-0.07091082632541656,-0.014676591381430626,0.039898425340652466,-0.03651027753949165,0.07288030534982681,-0.034510936588048935,-0.012815549969673157,-0.06934555619955063,-0.08265317231416702,0.09194232523441315,-0.02831709384918213,-0.022871287539601326,0.011048060841858387,0.06406065821647644,-0.022246846929192543,0.04936271533370018,-0.020422842353582382,-0.06575094163417816,0.06511753052473068,0.04626268148422241,-0.018503757193684578,-0.03709184750914574,-0.021544570103287697,0.04220607131719589,0.039246417582035065,-0.12067171186208725,0.07483217120170593,-0.06166176497936249,0.03584613651037216,0.05999613553285599,0.033021412789821625,0.05672381445765495,0.016125600785017014,-0.07794841378927231,0.003367105731740594,0.07011212408542633,0.03931846842169762,-0.1055438295006752,-0.045149244368076324,-0.008893459104001522,0.007403821684420109,-0.010904683731496334,-0.0032259670551866293,0.047692250460386276,0.10899294912815094,-0.037846364080905914,0.03686482831835747,-0.10066922008991241,-0.0883311778306961,-0.012344447895884514,0.0024355186615139246,0.01709151640534401,0.04593684524297714,0.06380476802587509,-0.031749825924634933,-0.08013394474983215,0.03330409526824951,-0.08266226947307587,0.036741696298122406,-0.06591983139514923,-0.05216382071375847,0.01664607971906662,-0.039910562336444855,-0.004352457355707884,-0.006297020707279444,0.017132967710494995,0.0724748969078064,0.02481410838663578,0.08478701859712601,0.017411289736628532,0.09227870404720306,0.05359441041946411,-0.026998218148946762,-0.0539507232606411,0.011453857645392418,-0.018969254568219185,-0.05794274061918259,0.020140390843153,-0.04153980314731598,-0.027395078912377357,-0.027130333706736565,0.0024982893373817205,-0.006317242048680782,-0.017007894814014435,0.06055866926908493,0.011957616545259953,-0.035151753574609756,0.11237188428640366,0.008782311342656612,0.06094652786850929,-0.00302132498472929,-0.08187410235404968,-0.04915983974933624,-0.014321806840598583,0.010731118731200695,0.08797117322683334,-0.02263033017516136],[0.026174155995249748,-0.03775611147284508,-0.032188087701797485,0.001204589381814003,0.0684032142162323,-0.035307031124830246,0.031807925552129745,-0.04218323528766632,-0.020854735746979713,-0.004077311605215073,-0.0035586925223469734,0.06830360740423203,-0.0029051252640783787,-0.044486209750175476,0.024719037115573883,-0.02707393281161785,0.023456048220396042,0.002136870054528117,-0.08410784602165222,0.0037001678720116615,0.026917582377791405,0.04256756603717804,0.08356130868196487,-0.07152585685253143,0.04661426320672035,0.01899099163711071,-0.012179158627986908,0.05043535679578781,0.0170101597905159,-0.03854776546359062,0.013819650746881962,-0.039607346057891846,-0.030852623283863068,-0.06543297320604324,-0.014640581794083118,-0.0103635648265481,0.026545459404587746,0.000639990670606494,-0.05913591757416725,0.05281255766749382,-0.015820076689124107,0.01541383657604456,0.04324797913432121,0.08835721760988235,0.08951982110738754,0.011138581670820713,0.037470024079084396,-0.049688514322042465,0.017662392929196358,-0.040780458599328995,-0.08884818851947784,0.0570724681019783,-0.027742799371480942,0.0441519096493721,0.030975019559264183,-0.06214308738708496,-0.1536361426115036,-0.04959075525403023,0.01809776946902275,-0.05619389936327934,-0.015522954985499382,-0.04494563117623329,0.05439421162009239,0.003715061116963625,-0.02374565787613392,0.03136454150080681,0.06813200563192368,0.02713855169713497,-0.07669742405414581,-0.05090749263763428,0.018309563398361206,-0.03665072098374367,-0.03587159141898155,0.05157603695988655,0.019923431798815727,0.06364418566226959,-0.02528935670852661,0.06382963061332703,-0.03762577474117279,0.061619944870471954,-0.003609803970903158,-0.01324084959924221,-0.07445558905601501,-0.01462459284812212,0.0078122541308403015,0.024819888174533844,0.005978928878903389,-0.038900356739759445,0.05209212377667427,-0.016651201993227005,-0.047183725982904434,0.027141164988279343,0.004547914024442434,0.01823834702372551,-0.03171613812446594,0.0060388133861124516,0.004547820892184973,-0.010746253654360771,-0.0022158673964440823,0.041604992002248764,0.02439560741186142,0.02306741289794445,-0.0034641283564269543,0.03787674009799957,0.028568075969815254,0.031897105276584625,-0.0464373379945755,-0.012191908434033394,0.048218052834272385,-0.03577394038438797,-0.014659944921731949,0.08303499966859818,0.08888990432024002,0.061844222247600555,0.052112072706222534,-0.026272978633642197,0.021410848945379257,-0.04229099303483963,-0.048588115721940994,-0.02343239076435566,0.00236591137945652,-0.031939875334501266,-0.010727712884545326,0.016834214329719543,0.0056499820202589035,0.00966655369848013,0.0032272974494844675,-0.025157775729894638],[-0.05753043666481972,-0.007215272635221481,-0.023977581411600113,-0.10022032260894775,-0.026144657284021378,-0.05024781450629234,0.030230140313506126,0.02754085510969162,0.023362640291452408,-0.019951820373535156,0.02097199484705925,0.014704300090670586,-0.019029928371310234,-0.029477829113602638,0.041096366941928864,-0.033276233822107315,0.02503608912229538,0.053308140486478806,0.0863804817199707,0.06581321358680725,0.042007166892290115,-0.06959268450737,-0.03208768740296364,-0.03796842321753502,0.08958761394023895,-0.031934499740600586,0.019368989393115044,0.03124985471367836,-0.041836388409137726,0.03279504552483559,0.023513982072472572,-0.052166786044836044,0.047945935279130936,-0.08919313549995422,-0.022373713552951813,0.04443160817027092,-0.05443798378109932,0.016422254964709282,-0.050394751131534576,0.0029877489432692528,-0.11860952526330948,-0.038437992334365845,-0.07148309797048569,0.0018675229512155056,-0.020039448514580727,-0.019280293956398964,0.059550344944000244,-0.0393911749124527,0.013642491772770882,0.08275746554136276,-0.0006700247176922858,-0.015344667248427868,-0.05594290792942047,-0.03252671658992767,0.0436229482293129,-0.0012525049969553947,0.022759240120649338,0.032249435782432556,0.01829305849969387,0.021782541647553444,0.09082448482513428,0.0798899233341217,0.005775246769189835,0.0450727641582489,0.025791866704821587,0.026052167639136314,0.03088059090077877,-0.04415462538599968,-0.06855355948209763,0.026164783164858818,0.08707219362258911,-0.039147909730672836,-0.029314087703824043,-0.043859515339136124,0.04524016007781029,-0.11097368597984314,-0.11280148476362228,0.0165637768805027,-0.02945793606340885,-0.021140040829777718,-0.017968537285923958,0.03862493112683296,-0.019902300089597702,-0.051167506724596024,-0.02604733407497406,0.03249574452638626,-0.013798660598695278,-0.09077338874340057,0.007195903453975916,0.018383093178272247,0.058966491371393204,0.00961398147046566,-0.010575680062174797,0.025700146332383156,0.02972283586859703,0.01575019769370556,-0.00246878108009696,0.013421817682683468,0.007474109064787626,0.009379121474921703,-0.04413808882236481,-0.055526092648506165,-0.02361438237130642,0.02918333373963833,0.010473720729351044,0.030643701553344727,-0.03613067790865898,-0.05429687723517418,0.07020147889852524,-0.003418250707909465,0.05559563264250755,0.029892120510339737,0.10037576407194138,-0.003876223461702466,0.052263110876083374,0.046583350747823715,-0.026935230940580368,-0.022981056943535805,-0.06670520454645157,-0.07128071784973145,0.0030425272416323423,0.022360343486070633,0.04287566617131233,-0.0009171371930278838,0.03956812620162964,-0.028455030173063278,-0.016144592314958572,0.03716108575463295],[0.018618479371070862,-0.021152758970856667,0.06558329612016678,-0.06983450800180435,-0.027265064418315887,-0.013016071170568466,0.03659053519368172,0.0005897374358028173,-0.057442452758550644,0.03057565540075302,0.043597448617219925,0.03400281444191933,0.028001463040709496,-0.09553665667772293,-0.03826363757252693,0.021176202222704887,0.0035453098826110363,0.03537672013044357,-0.06455980986356735,-0.006415459793061018,-0.06342970579862595,-0.09025057405233383,0.013619975186884403,0.029701372608542442,0.017677361145615578,-0.001370167126879096,-0.07350793480873108,0.05614492669701576,0.0005884174024686217,0.0981714203953743,0.042872752994298935,-0.09511926770210266,0.02878560684621334,-0.0598435215651989,-0.033267319202423096,-0.011376054026186466,-0.004375925753265619,0.01846659928560257,-0.04159102216362953,-0.0513027086853981,0.019562728703022003,0.0006321973050944507,0.007736039813607931,-0.08890430629253387,-0.009541444480419159,-0.03219335153698921,-0.027585750445723534,0.04381110891699791,-0.05753520503640175,-0.043722882866859436,-0.01990438997745514,0.04466628655791283,-0.035322509706020355,0.058861684054136276,0.0686011016368866,-0.04629728943109512,-0.02475103922188282,-0.03813708573579788,-0.07241781800985336,0.01394349429756403,0.038069091737270355,0.10610194504261017,-0.025014501065015793,0.06083570048213005,0.060837723314762115,-0.008619763888418674,0.02767246961593628,0.040491994470357895,0.0933322086930275,0.021716460585594177,-0.003331392537802458,-0.04153250530362129,-0.0038693726528435946,0.0519622340798378,0.005604600999504328,-0.036607347428798676,-0.0043335892260074615,-0.006572588346898556,-0.009861782193183899,-0.0772666186094284,0.024496840313076973,0.03351807966828346,0.01980709284543991,-0.0005047848680987954,-0.06881382316350937,-0.007090893108397722,0.05613959953188896,-0.05681557580828667,-0.09120770543813705,-0.07250984013080597,0.011411226354539394,0.015568488277494907,0.04495014250278473,0.008599058724939823,-0.07171059399843216,-0.027053596451878548,0.0377531424164772,0.009553144685924053,0.041452959179878235,0.023114949464797974,-0.005491967312991619,-0.007883144542574883,0.09341464191675186,0.01900908350944519,-0.0075525022111833096,0.004006069153547287,-0.010455727577209473,-0.09997177869081497,0.0422796756029129,0.08140654116868973,-0.03813885152339935,0.07242194563150406,-0.011937730014324188,0.020700354129076004,0.05470728874206543,-0.030773887410759926,0.05651572719216347,-0.06932855397462845,-0.04001329094171524,-0.027349533513188362,0.029697271063923836,-0.026018597185611725,-0.060950085520744324,-0.01936836540699005,-0.03609161078929901,0.037060536444187164,-0.011329165659844875,0.0005845248233526945],[-0.02244815044105053,0.01784328743815422,-0.0009120552567765117,0.005480221472680569,-0.12213580310344696,0.004542074631899595,0.018753618001937866,-0.008766577579081059,0.030920587480068207,0.0358508862555027,0.0571611188352108,0.004782022908329964,-0.08820588886737823,-0.11154425889253616,-0.07085540145635605,0.004635430872440338,-0.003748334478586912,0.023239703848958015,-0.03607853129506111,-0.03282402083277702,0.025918377563357353,0.02999054826796055,-0.011663028039038181,-0.008934849873185158,0.01592143625020981,0.02325291745364666,-0.05715157091617584,-0.03188203275203705,-0.05495361611247063,-0.020464764907956123,0.036682698875665665,0.015581912361085415,-0.050410665571689606,0.02757110260426998,0.0050444151274859905,-0.02273864671587944,-0.06455328315496445,-0.008008704520761967,0.03695404902100563,-0.09877471625804901,-0.02377213165163994,0.10482580214738846,0.030541665852069855,0.013427259400486946,-0.03460502624511719,-0.02691781148314476,0.001038265647366643,0.07509589195251465,0.017977481707930565,-0.037488941103219986,0.05111141875386238,0.007830330170691013,0.08244495838880539,-0.01951252855360508,-0.04798339679837227,0.005881959572434425,0.0399530827999115,0.0482851080596447,0.00903687346726656,-0.04544328153133392,-0.023038603365421295,-0.08054281771183014,-0.03206171095371246,-0.008604586124420166,0.017448753118515015,-0.024364659562706947,-0.0026664696633815765,-0.017883585765957832,0.03732127696275711,-0.04135286435484886,0.037724483758211136,0.08963313698768616,0.011258532293140888,-0.019132116809487343,-0.026869522407650948,0.058315541595220566,-0.052568476647138596,-0.044431429356336594,-0.06728824228048325,-0.06098008155822754,-0.05106109753251076,0.03854522854089737,0.050942618399858475,-0.03227774053812027,0.017862897366285324,0.030838917940855026,0.009888608008623123,-0.05038689076900482,-0.06766781210899353,0.045219894498586655,0.020892899483442307,0.024458786472678185,-0.05557579919695854,0.021490421146154404,0.027637477964162827,0.01676434837281704,-0.0340983085334301,0.05019300803542137,-0.06401423364877701,0.04696723446249962,0.05391663685441017,0.07382132112979889,-0.01342278067022562,-0.04600980132818222,0.03673847019672394,-0.04574679583311081,-0.008960595354437828,-0.01456882432103157,-0.033872708678245544,0.01192044373601675,-0.0694052204489708,0.03335558623075485,-0.044392816722393036,-0.075282983481884,-0.00036760533112101257,0.021169867366552353,0.026264136657118797,0.02662191353738308,-0.10787361115217209,-0.046253710985183716,0.0045564123429358006,0.06400838494300842,0.04223793372511864,0.08349969983100891,-0.024111198261380196,0.01868569105863571,-0.04433022812008858,-0.021115528419613838],[-0.03536716103553772,-0.02597006969153881,-0.012226950377225876,-0.003966667223721743,0.0002479249087627977,0.025075657293200493,0.006374859716743231,-0.01569465547800064,-0.024185681715607643,-0.0122982831671834,-0.02134399302303791,0.022476673126220703,0.03982315957546234,0.055926933884620667,-0.03458660468459129,0.02476952224969864,-0.062061723321676254,0.01839272305369377,0.04568176344037056,-0.004277518484741449,0.04958333820104599,-0.05231517180800438,-0.040803905576467514,-0.009992636740207672,0.04260185733437538,-0.019280746579170227,-0.024767747148871422,-0.04517121985554695,0.009278317913413048,0.057605136185884476,0.03289616480469704,0.02732868678867817,-0.008575236424803734,-0.025308534502983093,0.031772445887327194,-0.0016561598749831319,-0.007763538043946028,0.04132436588406563,-0.006478334777057171,-0.03819159045815468,0.03895283117890358,0.005020180717110634,-0.048246171325445175,-0.05296962335705757,0.004337218124419451,0.10780815035104752,-0.018626634031534195,-0.014398728497326374,0.07052388042211533,-0.003860675962641835,-0.06755561381578445,-0.06044537201523781,0.06029349938035011,0.032779186964035034,0.03731658682227135,-0.003942809998989105,-0.033293675631284714,-0.008529380895197392,0.007609816733747721,-0.0385672003030777,0.022604048252105713,-0.05224965140223503,-0.015090063214302063,-0.00965036265552044,-0.032052088528871536,-0.10287938266992569,0.020545942708849907,-0.03435783460736275,0.06444842368364334,-0.015500602312386036,-0.02570670284330845,0.004362022969871759,0.044025719165802,-0.022852938622236252,0.04522407427430153,0.06705257296562195,0.04818473011255264,0.07443474978208542,0.05510028824210167,0.06974134594202042,0.07183753699064255,0.008905470371246338,-0.019176524132490158,-0.1042761504650116,-0.060530196875333786,-0.02267911285161972,-0.015007681213319302,-0.00759407551959157,-0.04612220078706741,-0.0746394544839859,-0.005065483506768942,-0.009435095824301243,-0.04149894788861275,-0.028102315962314606,-0.04407703876495361,-0.018337681889533997,-0.0392756313085556,0.05982350558042526,0.011931848712265491,-0.04280736297369003,-0.011337299831211567,-0.05245990306138992,0.04594629257917404,0.06369295716285706,0.05904992297291756,-0.05797100439667702,-0.008536957204341888,-0.01834147796034813,0.02911324054002762,-0.04841362684965134,-0.034343965351581573,-0.014392643235623837,0.0072574736550450325,0.03464854881167412,-0.015035160817205906,0.03072251006960869,0.037676118314266205,-0.013516421429812908,-0.05699901282787323,-0.05387052521109581,0.026321956887841225,-0.025754280388355255,-0.0750560536980629,0.027052434161305428,0.005941916257143021,-0.062186334282159805,0.05716080963611603,0.037099409848451614],[0.005225582513958216,-0.05492888763546944,-0.05983160063624382,-0.015921246260404587,-0.07791031152009964,0.018671410158276558,-0.0649232342839241,0.007418418303132057,-0.013448544777929783,0.03566456586122513,-0.042691923677921295,0.012358210980892181,-0.06413637846708298,0.035276997834444046,-0.0034488863311707973,0.023298515006899834,-0.05907776951789856,0.020770825445652008,0.012287150137126446,0.019262263551354408,0.014543687924742699,-0.00878807995468378,0.05716163292527199,-0.008255300112068653,-0.03751106560230255,-0.00276387482881546,-0.046147964894771576,-0.021242305636405945,-0.00857149250805378,-0.017850153148174286,0.00989900529384613,0.08857904374599457,0.026263413950800896,0.04886578395962715,-0.022736122831702232,-0.027306681498885155,-0.01732400804758072,0.03939655050635338,-0.09717929363250732,-0.047395624220371246,0.003315089736133814,-0.008992578834295273,0.0900096446275711,0.019428815692663193,-0.030222758650779724,-0.07296882569789886,-0.016767650842666626,-0.059346165508031845,0.02327229641377926,0.005536811426281929,0.014474430121481419,0.10234768688678741,-0.03916861116886139,-0.00964634120464325,-0.05533691868185997,-0.005263463128358126,0.0736679956316948,0.02672301046550274,-0.004365887492895126,0.011557308956980705,-0.059377312660217285,-0.015819065272808075,0.001972904894500971,0.004479379393160343,-0.07055001705884933,0.01564754545688629,0.012759581208229065,-0.017112847417593002,0.003007931634783745,-0.06809944659471512,-0.06873681396245956,0.006453103385865688,-0.033023905009031296,0.0010131077142432332,0.03679643198847771,-0.008463061414659023,-0.12808829545974731,-0.007149077486246824,-0.023605048656463623,-0.009275364689528942,0.04097897559404373,-0.07397153228521347,0.012300524860620499,0.07199608534574509,-0.030772041529417038,0.020259814336895943,0.04540085420012474,0.009526822715997696,-0.03160930052399635,-0.03326570615172386,0.03633942827582359,0.02721446380019188,-0.038392260670661926,-0.05032704398036003,-0.059921473264694214,0.07672277092933655,-0.003104978706687689,0.10892320424318314,0.024932147935032845,0.020058272406458855,0.014787360094487667,0.047052301466464996,-0.04534203186631203,0.0993625596165657,-0.003209634916856885,-0.03425947204232216,0.01065521128475666,0.050972018390893936,-0.04487791657447815,0.025092633441090584,-0.034161876887083054,-0.02076680399477482,-0.022255050018429756,0.03654356673359871,-0.05116986110806465,0.00911415833979845,-0.015912415459752083,-0.03985222801566124,-0.055620308965444565,-0.05532967671751976,-0.07571761310100555,0.038191571831703186,-0.008385317400097847,0.006938337814062834,0.05410135164856911,-0.05565228313207626,-0.042023710906505585,0.010778351686894894],[-0.0855555608868599,-0.023936187848448753,-0.039090294390916824,0.014743898063898087,-0.01799217239022255,0.0923670306801796,0.043151240795850754,-0.03942292183637619,-0.01783357933163643,-0.013449880294501781,0.15260650217533112,-0.06951568275690079,0.009421133436262608,-0.09665808826684952,0.0010412306291982532,0.08717811107635498,-0.017651744186878204,0.04821474477648735,-0.003565787337720394,-0.017657682299613953,-0.011552667245268822,-0.02696417272090912,-0.028822336345911026,-0.06107000634074211,0.06729353964328766,-0.018124360591173172,0.012201829813420773,-0.04104375094175339,0.05133115127682686,-0.012882165610790253,-0.003947794903069735,-0.08372090011835098,0.01809636317193508,0.08255617320537567,-0.039970919489860535,-0.021183742210268974,-0.05221663787961006,0.006148717366158962,0.003771477611735463,0.03234316408634186,0.025206957012414932,-0.03661419451236725,0.010163473896682262,-0.015333493240177631,-0.04996028542518616,-0.00602657301351428,0.1742367148399353,0.10677666962146759,0.007868479005992413,0.07894637435674667,-0.0021848047617822886,0.0010699598351493478,-0.08743678778409958,-0.04631056264042854,-0.03517324477434158,0.004302576649934053,0.00044594876817427576,-0.02636069431900978,-0.02655276656150818,-0.007644911762326956,-0.06590396910905838,-0.02706844173371792,-0.018871517851948738,-0.05744175240397453,-0.01521590631455183,-0.03717992827296257,0.05680312588810921,-0.011121915653347969,-0.007046638522297144,0.019726529717445374,0.025337189435958862,-0.07965358346700668,-0.01866517774760723,-0.0404927097260952,-0.008012584410607815,-0.025561492890119553,0.007058287039399147,-0.04523901641368866,-0.025789227336645126,-0.025859085842967033,0.049889303743839264,0.015876607969403267,0.01742682047188282,-0.013345450162887573,-0.01956651546061039,0.024340277537703514,0.03584783151745796,0.0004513066669460386,0.052486926317214966,0.05838004872202873,-0.07571124285459518,0.0196797214448452,-0.003404056653380394,0.02038220502436161,0.05069323256611824,-0.041918426752090454,-0.0745043084025383,0.05125631392002106,-0.047147732228040695,-0.03162793070077896,0.009691507555544376,-0.030489757657051086,-0.07376033812761307,0.0015669934218749404,-0.03535659238696098,0.026924122124910355,-0.0253826342523098,-0.03114478662610054,-0.0088291484862566,0.047794513404369354,0.042254894971847534,-0.04902894049882889,0.12875604629516602,-0.014313342049717903,-0.0530833937227726,0.041304755955934525,-0.016621243208646774,0.09887749701738358,0.038988687098026276,-0.009159952402114868,0.07218247652053833,0.036971110850572586,-0.05539238825440407,0.040713414549827576,-0.02381938323378563,-0.003696596249938011,0.006724448408931494,-0.04177149012684822],[-0.06204884871840477,0.018362658098340034,-0.062139783054590225,-0.11865952610969543,-0.03750109672546387,0.015228679403662682,-0.012403011322021484,0.05816400423645973,0.008508898317813873,-0.0341874361038208,-0.019986456260085106,-0.06610000878572464,0.049982376396656036,-0.06399967521429062,-0.04171458259224892,-0.007624700199812651,0.0005107203614898026,-0.07039035111665726,-0.04205275699496269,0.012963388115167618,0.05196642875671387,0.016098124906420708,-0.001204758184030652,-0.07185712456703186,-0.029260702431201935,0.023971857503056526,0.04891679063439369,0.04067544266581535,0.006396275945007801,0.05530180782079697,0.1326059252023697,-0.027348803356289864,-0.03519897162914276,0.06927962601184845,0.010702717117965221,0.005249988753348589,0.01811346784234047,-0.030132396146655083,-0.04750705137848854,-0.035806216299533844,0.057378944009542465,-0.06591954827308655,0.02290227636694908,-0.025940775871276855,-0.016156557947397232,0.03406931087374687,0.038464270532131195,0.015910400077700615,-0.08556859195232391,0.0718730092048645,0.06039506942033768,0.005948258563876152,0.0016597578069195151,0.08204954862594604,0.04400821402668953,-0.0013269109185785055,-0.013459891080856323,-0.008641207590699196,0.05433705449104309,0.04783046990633011,-0.07523728162050247,0.021798616275191307,0.03864214941859245,-0.06929294764995575,-0.0001347001234535128,-0.08099373430013657,0.0059550185687839985,-0.09585563093423843,-0.03070053458213806,-0.028061848133802414,-0.03265678510069847,0.06677840650081635,0.024004777893424034,-0.017651105299592018,-0.04335419833660126,-0.011351188644766808,-0.047352708876132965,0.0447191521525383,0.09230529516935349,0.04882659390568733,0.015283520333468914,-0.008104884065687656,-0.018582778051495552,0.08010774850845337,-0.027281977236270905,0.07106796652078629,-0.052170369774103165,-0.013697000220417976,-0.07880189269781113,0.007352875079959631,-0.05795888975262642,0.07658279687166214,0.01803520880639553,0.025917580351233482,0.01272311620414257,-0.05040454864501953,0.005718998145312071,0.08503594249486923,-0.00021396954252850264,-0.04652005434036255,-0.08495701104402542,-0.03214418888092041,-0.08146343380212784,0.03820028156042099,0.03613113984465599,-0.04031367227435112,0.027588481083512306,-0.026396574452519417,-0.001990950433537364,0.016690479591488838,-0.020075850188732147,0.01977703347802162,-0.07762674987316132,0.0057605174370110035,-0.0015755726490169764,-0.09405803680419922,-0.0832536518573761,-0.08555175364017487,0.019059287384152412,0.005700262263417244,0.012545722536742687,-0.06192958727478981,0.052757810801267624,0.04510919004678726,-0.03528537601232529,0.0545102097094059,-0.011370697990059853,-0.082586869597435],[-0.07506497949361801,0.034161895513534546,-0.004416569136083126,0.04036695882678032,-0.003882869379594922,0.012311529368162155,0.09766533970832825,0.06426657736301422,-0.01989739015698433,0.017315495759248734,0.022748583927750587,0.03499957174062729,0.0032719275914132595,-0.022825127467513084,-7.116230699466541e-05,-0.022062411531805992,0.0774877592921257,0.05688895285129547,-0.00950433686375618,0.019835904240608215,-0.00760881882160902,0.05492005497217178,0.048215944319963455,0.02604810707271099,0.03989018499851227,0.030377527698874474,0.05396752804517746,0.024458006024360657,0.006931150332093239,-0.026614181697368622,-0.07226043939590454,-0.0014972446952015162,-0.03408510237932205,0.002697918564081192,0.05245643109083176,0.007908601313829422,-0.019089898094534874,-0.03926039859652519,-0.06583143025636673,0.061279334127902985,-0.08176713436841965,-0.04299720376729965,-0.1064029186964035,-0.014700864441692829,-0.015666373074054718,-0.018553495407104492,-0.0030830439645797014,-0.037654049694538116,-0.041892897337675095,0.08363790065050125,-0.015301606617867947,0.0422581247985363,-0.038277193903923035,0.07423721998929977,0.069687619805336,0.010719613172113895,-0.05057265982031822,0.0041033439338207245,0.0021684328094124794,0.011021260172128677,-0.04518938809633255,-0.06995385885238647,0.007327266037464142,-0.0004780975868925452,0.0002611255622468889,0.047364622354507446,-0.06785132735967636,0.046465735882520676,-0.03399331122636795,-0.01815040595829487,-0.038003161549568176,0.0041493698954582214,-0.08781442791223526,-0.025987844914197922,-0.02378208190202713,0.058087848126888275,0.006961463950574398,0.03198070079088211,0.0003657852648757398,-0.04829142987728119,0.04177841916680336,-0.03894529119133949,-0.02412010356783867,0.008310667239129543,0.04336698353290558,-0.009352819994091988,0.06938257068395615,-0.02616570144891739,0.030632928013801575,9.292062895838171e-05,0.0712176188826561,0.009862756356596947,-0.08663906902074814,0.050188470631837845,-0.003821024904027581,-0.02549794316291809,0.05625847354531288,-0.015062430873513222,0.02759014070034027,-0.035140205174684525,-0.03829745203256607,0.08349494636058807,-0.03638501465320587,-0.026895856484770775,-0.07854150980710983,0.07501932978630066,0.01831360161304474,0.010878203436732292,0.044824887067079544,-0.061266157776117325,-0.024946268647909164,-0.003999217879027128,-0.0712316632270813,0.060447584837675095,-0.0008377307094633579,-0.014920888468623161,0.010868057608604431,-0.03457842767238617,0.0020956171210855246,0.1576482653617859,0.02782529778778553,0.07659956067800522,-0.01626601815223694,-0.0346386656165123,0.014244144782423973,-0.0615898035466671,-0.10608890652656555,0.03344513848423958],[0.029537711292505264,0.03825843334197998,0.0012567731318995357,0.09089237451553345,-0.004010919947177172,-0.025479372590780258,-0.138282909989357,-0.0021861777640879154,0.03832486271858215,0.000332609168253839,0.051733676344156265,0.1055503562092781,-0.007973396219313145,0.056600406765937805,-0.07292711734771729,0.04737040027976036,0.0029752319678664207,-0.010171035304665565,-0.0075642806477844715,-0.007197951432317495,-0.014203274622559547,0.009138966910541058,-0.008013474754989147,-0.05316459760069847,0.019281381741166115,-0.027959154918789864,0.04829460754990578,-0.0016355940606445074,0.005933620501309633,-0.09426403045654297,-0.05792691558599472,0.0433686189353466,-0.03387114405632019,-0.02448919788002968,-0.012785297818481922,0.06273189187049866,0.01720931939780712,0.060280729085206985,-0.012244019657373428,0.009802298620343208,-0.05548347905278206,0.05417618155479431,0.0049962797202169895,0.0020462635438889265,0.015568693168461323,0.06655887514352798,-0.009844438172876835,0.07654363662004471,-0.039011579006910324,0.019513310864567757,0.09241712093353271,-0.022514687851071358,0.0112689808011055,0.0401877760887146,-0.006332548800855875,-0.06913218647241592,-0.04869755357503891,0.026603106409311295,0.04101872444152832,0.03608528897166252,0.052714698016643524,0.003345153294503689,0.009578092023730278,-0.0698603093624115,0.01450853981077671,0.027911115437746048,-0.026824573054909706,0.029612218961119652,-0.08344137668609619,0.03454292193055153,0.013808042742311954,0.09695259481668472,0.06489548087120056,0.06931883841753006,0.037553995847702026,0.02973819524049759,-0.054617512971162796,-0.015415182337164879,0.08384689688682556,-0.0669253021478653,-0.020725037902593613,-0.06528463214635849,0.06675440818071365,-0.026026438921689987,0.07105794548988342,-0.01911882311105728,-0.023174267262220383,0.05888744443655014,0.04316002130508423,-0.12492534518241882,0.02083909697830677,0.027604350820183754,0.009668201208114624,-0.03027741238474846,0.0012349714525043964,-0.01829453371465206,0.009719732217490673,-0.009374713525176048,-0.028590453788638115,0.007387622259557247,0.036996714770793915,0.013305711559951305,-0.02538212575018406,0.015465893782675266,0.049329809844493866,0.07336772978305817,0.055426377803087234,0.024929365143179893,-0.04635250195860863,-0.06277786940336227,-0.009181876666843891,-0.06480143219232559,-0.03609760105609894,-0.007763969246298075,-0.022271020337939262,-0.014916942454874516,-0.06107880920171738,0.010606169700622559,0.04583391547203064,-0.02521134912967682,0.03340498358011246,0.12242033332586288,-0.004343812819570303,0.029970651492476463,0.009050369262695312,0.04453182592988014,-0.07888107001781464,-0.04869700223207474],[0.0065840547904372215,0.040790773928165436,0.005999371409416199,-0.0765576884150505,-0.03786522150039673,-0.03655216842889786,0.01789146475493908,-0.03505780175328255,-0.031309161335229874,0.04991479590535164,0.06142307072877884,-0.019008498638868332,0.019545486196875572,-0.08654874563217163,0.009126830846071243,0.05471602454781532,0.024236071854829788,0.004642472602427006,-0.017869647592306137,-0.029738493263721466,-0.008236818946897984,-0.07135787606239319,0.07407206296920776,0.025963563472032547,-0.0047048041597008705,-0.028513388708233833,-0.0032360749319195747,0.03669305890798569,0.04652075842022896,-0.041561827063560486,-0.04478459805250168,0.09560956060886383,0.05227681249380112,0.03258635848760605,-0.006378246936947107,0.04250043258070946,-0.058561816811561584,0.07045303285121918,-0.001638339483179152,0.03637116774916649,0.029726143926382065,-0.006041127722710371,-0.008066407404839993,0.05620938539505005,0.04721255972981453,-0.08151794970035553,-0.07783453911542892,-0.04352176561951637,-0.04109903424978256,-0.05144054442644119,0.012512369081377983,-0.021333903074264526,0.055480752140283585,0.06680022925138474,-0.0013019166653975844,0.07742434740066528,0.0010962592205032706,-0.020002976059913635,0.0029855247121304274,0.04345843195915222,-0.07426058501005173,-0.00959362369030714,0.013681764714419842,0.01669992506504059,-0.016952848061919212,0.022477874532341957,0.013430286198854446,-0.027226686477661133,0.10033579170703888,0.020211076363921165,-0.015232695266604424,-0.026297878473997116,0.04733852297067642,0.0046981931664049625,0.1171909049153328,-0.020065782591700554,-0.05717305466532707,-0.0012778054224327207,0.008050413802266121,-0.09742165356874466,-0.01421705074608326,-0.01694956049323082,-0.016960833221673965,-0.028987573459744453,-0.06177622452378273,0.0348467156291008,-0.02684943377971649,-0.04709155112504959,-0.0349448099732399,-0.02172379195690155,0.00499506201595068,0.030739901587367058,-0.04383024573326111,-0.022045250982046127,-0.06189223751425743,-0.1560223549604416,0.0071656848303973675,0.06989876180887222,0.02401411347091198,-0.023332657292485237,0.004441577009856701,-0.05403506010770798,-0.00562130706384778,-0.019672343507409096,-0.03921883553266525,0.018653415143489838,0.11956290155649185,0.0766063928604126,-0.003319486975669861,0.04067293182015419,0.03968604654073715,-0.02979220636188984,0.029614346101880074,-0.06627078354358673,-0.037041667848825455,0.011001543141901493,-0.019078291952610016,0.08078160136938095,0.029806343838572502,-0.01757168024778366,-0.02165653370320797,0.008588792756199837,-0.04855164512991905,0.027401354163885117,-0.06325642764568329,0.02866458334028721,-0.007558787707239389,0.019059687852859497],[-0.04665756970643997,0.011397379450500011,0.11113464087247849,-0.02097437158226967,0.014681665226817131,0.06924790889024734,0.03505958244204521,0.019918497651815414,-0.04661809653043747,-0.0587884820997715,0.0024424695875495672,-0.021306434646248817,-0.0008666290668770671,0.009417505003511906,-0.031126877292990685,0.02272328920662403,0.08539620786905289,-0.046561408787965775,-0.021635858342051506,-0.0022972968872636557,0.05245397984981537,-0.054567135870456696,-0.04899442568421364,-0.09952940791845322,-0.020257119089365005,0.03126557171344757,0.049014415591955185,0.01640469953417778,-0.027650784701108932,0.03246726095676422,0.009408478625118732,-0.08849918842315674,-0.05652568116784096,0.06949874013662338,0.014821041375398636,-0.06324074417352676,0.03771131858229637,0.048821479082107544,-0.02016287110745907,0.030252909287810326,-0.1719209849834442,0.044723186641931534,0.054050106555223465,-0.05186660960316658,0.01297935750335455,-0.015553549863398075,-0.004732522182166576,-0.019552461802959442,-0.061352308839559555,0.08697306364774704,-0.014184082858264446,0.00492016039788723,-0.04626946523785591,-0.047649554908275604,0.018938284367322922,0.024389885365962982,0.04042337089776993,0.05085247382521629,-0.009686093777418137,-0.020430929958820343,0.034353066235780716,-0.02931990846991539,0.03990739956498146,0.017224904149770737,0.053110234439373016,0.031019188463687897,-0.0485215000808239,-0.03982057794928551,0.033636920154094696,0.08771243691444397,-0.0608418807387352,0.001070961356163025,0.012955251149833202,-0.07008279114961624,0.02208610810339451,-0.004309400916099548,-0.09634752571582794,0.07459073513746262,-0.03946024179458618,-0.05906839668750763,0.019452547654509544,0.02562730759382248,0.03387241065502167,-0.017753852531313896,-0.0004862019559368491,-0.033635213971138,-0.06034290790557861,0.04961199313402176,-0.004709716886281967,-0.008347277529537678,-0.09209588170051575,-0.008202818222343922,-0.038877565413713455,-0.008008872158825397,-0.010093128308653831,-0.020606443285942078,0.043188683688640594,0.020733920857310295,0.05170789733529091,-0.06075749546289444,-0.029843518510460854,-0.0017291150288656354,-0.018778158351778984,-0.003641685238108039,-0.05437381565570831,-0.03285485878586769,-0.07547059655189514,-0.040951672941446304,0.03187337890267372,-0.009928757324814796,0.0692519098520279,-0.027462702244520187,0.0054732756689190865,-0.05579902231693268,0.1195966824889183,-0.008300038985908031,0.038162920624017715,0.019068080931901932,-0.026856817305088043,-0.06121423840522766,0.007195383310317993,-0.025677481666207314,-0.007218973245471716,0.029945842921733856,0.003594829700887203,0.017369646579027176,0.006856645457446575,-0.06761017441749573],[0.0635920986533165,0.05421322584152222,-0.052280645817518234,0.023278268054127693,-0.02987491525709629,-0.03435409814119339,-0.00019137364870402962,0.08044277876615524,0.04875979572534561,0.028816094622015953,-0.05266888067126274,0.1174907311797142,0.040291909128427505,-0.10853774100542068,0.01868385635316372,-0.023045364767313004,0.0191761814057827,0.01757730543613434,-0.04244508594274521,0.08425398916006088,0.009185629896819592,0.043296895921230316,0.062149155884981155,-0.033584512770175934,-0.04200908914208412,0.05154979228973389,0.063902847468853,-0.06354977190494537,0.09279454499483109,-0.01079917885363102,0.03173350915312767,0.02684783935546875,-0.04509805887937546,-0.03997863456606865,-0.09595361351966858,-0.052940066903829575,-0.06818783283233643,0.0019192724721506238,0.06335923820734024,-0.0013014312135055661,0.015615871176123619,0.03603830561041832,0.03126168251037598,-0.01757686957716942,-0.06728741526603699,-0.019955269992351532,0.0031494416762143373,-0.040128231048583984,0.017016183584928513,-0.013840936124324799,0.028499487787485123,-0.036613937467336655,-0.04208577051758766,0.08037500828504562,0.0016059817280620337,0.02491217851638794,-0.05091863125562668,-0.017763769254088402,0.0316166989505291,0.07200983166694641,-0.03379443660378456,-0.03684049844741821,-0.0014360235072672367,-0.07010480016469955,-0.001629902166314423,-0.003060184884816408,0.033244479447603226,0.06505544483661652,0.02639157325029373,0.03410680964589119,0.002404627623036504,-0.016722651198506355,-0.0923025980591774,-0.04066721349954605,0.009604769758880138,-0.07613851875066757,0.010624612681567669,-0.018475238233804703,-0.047091979533433914,-0.020980866625905037,0.03338518366217613,0.040468133985996246,-0.08903927356004715,-0.006876584608107805,0.04174536466598511,-0.012339472770690918,0.005092548672109842,-0.06920310854911804,-0.021867012605071068,0.08419976383447647,-0.036104004830121994,-0.0662684440612793,0.0071967183612287045,0.036612797528505325,0.05468336120247841,-0.023564323782920837,0.010239866562187672,0.02488960698246956,0.02949865162372589,-0.025703491643071175,0.07869584858417511,-0.03160553425550461,0.03279593214392662,-0.000992262503132224,-0.026848819106817245,-0.029638739302754402,-0.028230533003807068,-0.019762063398957253,-0.04666241258382797,0.032110512256622314,-0.03197580575942993,-0.028358561918139458,0.02244894579052925,-0.0047837491147220135,-0.06546442955732346,-0.04256698489189148,-0.008990234695374966,-0.026515500620007515,0.03451095521450043,-0.035158343613147736,-0.04445492476224899,-0.047275345772504807,0.01864088885486126,0.022323003038764,-0.07692505419254303,0.028377993032336235,0.04004545882344246,-0.07817452400922775],[-0.03452282398939133,0.06677135825157166,0.04805690795183182,0.0013696306850761175,0.0248862374573946,0.09714144468307495,0.023092370480298996,-0.05654976889491081,0.06299392133951187,-0.03631620481610298,0.0466461107134819,0.03018532320857048,0.0410056933760643,0.06900221109390259,-0.06641765683889389,-0.004379972815513611,0.09096883982419968,0.041959114372730255,0.007142029702663422,-0.04539109393954277,0.005037387367337942,-0.04192187264561653,-0.06750455498695374,0.02749733440577984,0.0009923640172928572,-0.03560994192957878,0.01649390161037445,-0.023899240419268608,0.08235803991556168,-0.0012848979094997048,0.07297973334789276,-0.03515801951289177,0.027718257158994675,0.08409842103719711,0.01217919122427702,0.05220380797982216,-0.07995254546403885,0.03273727744817734,0.003344861092045903,0.035062097012996674,0.040306366980075836,-0.10225918889045715,-0.020404821261763573,-0.030154073610901833,0.007024264428764582,-0.09008423238992691,-0.049655474722385406,0.04598410800099373,0.008910953998565674,-0.051935601979494095,-0.011961041018366814,0.05291809141635895,-0.0825604796409607,-0.013105446472764015,-0.009565862827003002,0.0070138731971383095,0.022480206564068794,0.08723144978284836,0.026434171944856644,-0.027016110718250275,0.05560823157429695,-0.038183558732271194,0.018216846510767937,0.072300486266613,0.049229755997657776,0.03800506144762039,-0.10275804996490479,-0.004665018524974585,-0.026319868862628937,0.06088939681649208,0.03866225853562355,0.011883342638611794,0.0351264551281929,-0.028669964522123337,0.02759881503880024,0.003006323706358671,-0.07763011753559113,0.015769539400935173,0.0324498787522316,0.05714287608861923,0.02302316017448902,0.045334503054618835,-0.07970695942640305,-0.01718037948012352,-0.00793361384421587,-0.017466841265559196,-0.0032514699269086123,-0.028176624327898026,0.034252721816301346,-0.04538431763648987,0.005910622421652079,0.003406819887459278,0.006880091968923807,-0.040841128677129745,0.06364071369171143,-0.009651752188801765,-0.06617176532745361,0.03674806281924248,-0.0019353259121999145,-0.00610609445720911,-0.004500162322074175,0.018280519172549248,-0.0020154458470642567,-0.03555075079202652,-0.06500942260026932,0.012837077490985394,-0.07359220087528229,0.05348078906536102,-0.04317917674779892,-0.03930569067597389,-0.04507944732904434,-0.06232805922627449,-0.035657819360494614,-0.012716448865830898,-0.10713987052440643,-0.11101598292589188,-0.03285253047943115,0.039348725229501724,-0.059804003685712814,-0.003511349204927683,0.06518849730491638,-0.06355485320091248,-0.018659090623259544,-0.03388187289237976,0.04100421071052551,0.02081926167011261,0.029315248131752014,0.11389093846082687],[0.06989411264657974,-0.001340326969511807,-0.005332425236701965,-0.06639393419027328,-0.07660064846277237,-0.0022642575204372406,-0.05990143492817879,0.028679996728897095,-0.036670707166194916,-0.01947319135069847,-0.06998789310455322,0.09705602377653122,0.035034939646720886,-0.03628361225128174,0.008020486682653427,0.05966021865606308,-0.039582058787345886,0.08235543221235275,-0.04979405179619789,-0.004350665956735611,-0.07562357187271118,-0.11672228574752808,0.046441759914159775,0.005246393382549286,-0.0855945497751236,-0.07551602274179459,0.048138365149497986,-0.007203947752714157,0.0662730485200882,0.02986382693052292,-0.0005255891592241824,0.004659659694880247,-0.024181518703699112,0.003421131055802107,-0.0028137401677668095,0.038495805114507675,-0.007633205037564039,0.03811120614409447,0.04764685407280922,0.008313161320984364,-0.05956790968775749,-0.004129763692617416,-0.08766584098339081,-0.05620206519961357,0.0335104838013649,0.020801622420549393,0.00023709623201284558,-0.01394712645560503,-0.03358057513833046,-0.028823649510741234,0.04365503415465355,0.027301782742142677,-0.05925474315881729,0.004624777007848024,0.008043159730732441,0.07211407274007797,-0.0806986540555954,-0.0357535257935524,0.046844836324453354,-0.05108843743801117,0.10407210886478424,-0.051330458372831345,-0.001986587420105934,0.025689169764518738,0.040357284247875214,0.035143110901117325,-0.021402228623628616,0.04211993142962456,-0.03335954248905182,-0.02469165250658989,0.021005092188715935,0.06982811540365219,-0.012215456925332546,-0.0388798825442791,0.05255426466464996,-0.06033819541335106,0.08729159832000732,-0.04528732970356941,0.02888745442032814,0.04715963453054428,0.03345175459980965,0.008799460716545582,0.0020737515296787024,-0.07600739598274231,-0.03874741494655609,0.02937941998243332,0.03314623236656189,-0.05135123059153557,0.016276827082037926,0.010986422188580036,0.0813925638794899,-0.019065329805016518,-0.023295221850275993,-0.035581160336732864,-0.04702846333384514,0.017982810735702515,-0.03239452838897705,0.04907568544149399,-0.03252284601330757,0.06734006851911545,0.01827436126768589,0.011327572166919708,-0.0529274046421051,0.015156381763517857,0.002571872668340802,0.026056434959173203,-0.030720936134457588,-0.06475172936916351,0.01458552572876215,0.005825035739690065,0.009269341826438904,0.047210223972797394,-0.04326458275318146,-0.10953561961650848,0.02143854834139347,0.02060873433947563,-0.021963631734251976,0.004819418769329786,-0.04813652113080025,-0.09687350690364838,-0.07957195490598679,-0.0031223157420754433,0.06839515268802643,-0.01725955307483673,0.037296440452337265,-0.027543170377612114,-0.00236646831035614,0.03633935749530792],[-0.0012456420809030533,-0.022006241604685783,-0.033519282937049866,-0.00450073042884469,0.05509248375892639,-0.0722288265824318,0.03897307440638542,0.013731647282838821,-0.044371627271175385,0.008829506114125252,-0.009026231244206429,-0.04359666258096695,-0.02472415752708912,-0.06313272565603256,-0.0953141376376152,0.006404712330549955,0.0538155660033226,0.06875882297754288,-0.05494873598217964,0.10363172739744186,0.07046744972467422,0.06550474464893341,-0.03615384176373482,-0.0257381834089756,-0.09880128502845764,0.00879560224711895,-0.02515304647386074,0.009335526265203953,-0.03883197531104088,0.03278431296348572,0.021454785019159317,-0.05138780549168587,0.0030115810222923756,0.01291818730533123,0.09270640462636948,0.004403909668326378,-0.04341093450784683,-0.014344350434839725,0.008486502803862095,-0.006804047152400017,-0.08422239124774933,-0.01125815324485302,-0.03189072012901306,-0.014331736601889133,0.09724458307027817,-0.0405825600028038,0.06749188154935837,0.05338123068213463,0.027999429032206535,-0.0071676261723041534,0.02899252250790596,-0.010092396289110184,-0.019592907279729843,-0.03701266646385193,0.016060838475823402,-0.013887238688766956,-0.011343196034431458,0.0672987774014473,-0.029002701863646507,0.03382863104343414,-0.032042425125837326,-0.06647761911153793,-0.06712936609983444,-0.022619236260652542,0.02881065383553505,0.03150535374879837,-0.01126793958246708,0.028568550944328308,0.005037472117692232,-0.01216964703053236,0.03931349143385887,0.055314306169748306,0.04480794444680214,-0.010118314996361732,0.022300587967038155,-0.10219995677471161,0.015957824885845184,0.016753358766436577,0.005647975020110607,-0.004736697766929865,0.05526942014694214,-0.004117126110941172,-0.007318253628909588,-0.01103887427598238,0.04462052509188652,-0.02042032778263092,-0.03315925598144531,-0.012174359522759914,0.07925795018672943,-0.016194695606827736,0.02748815156519413,-0.013182255439460278,-0.011946041136980057,-0.015525794588029385,-0.05720609799027443,-0.003975770901888609,0.03306269645690918,0.07384960353374481,0.013959470205008984,-0.04089467227458954,0.03382353112101555,0.019928498193621635,0.06441779434680939,0.09615037590265274,0.054969627410173416,-0.025257721543312073,-0.018251819536089897,0.0535697266459465,-0.018487095832824707,-0.008183926343917847,0.022814424708485603,0.050342313945293427,0.010227564722299576,-0.13360126316547394,0.015357349067926407,-0.011227326467633247,-0.045020941644907,-0.006747066508978605,0.051373183727264404,-0.051969014108181,0.06950120627880096,0.03782227262854576,0.05277194827795029,-0.03757810220122337,-0.011757261119782925,-0.018619081005454063,-0.0014632359379902482,-0.0018470804207026958],[-0.016903501003980637,-0.013287603855133057,-0.009179022163152695,0.011136621236801147,-0.08580707013607025,0.02253079228103161,0.07634812593460083,0.05174937844276428,-0.04299315810203552,0.06497699022293091,0.10335755348205566,-0.011259958148002625,0.03271523863077164,0.09900425374507904,0.042579326778650284,0.0663897767663002,-0.03385927155613899,0.0014854301698505878,0.014966830611228943,0.03332136198878288,0.03689548745751381,0.007130658719688654,-0.06039603799581528,0.047108348459005356,0.0008280203328467906,-0.05393977090716362,0.023784996941685677,0.04036553204059601,0.02142840251326561,-0.0067220088094472885,0.09158377349376678,0.03549463674426079,-0.022515248507261276,-0.06670185923576355,-0.03166542947292328,-0.10905363410711288,-0.012013547122478485,0.006124232430011034,-0.026271473616361618,-0.02840026468038559,0.06490354239940643,0.008321302942931652,0.07065301388502121,-0.008713724091649055,-0.008904808200895786,-0.1056404784321785,0.03727680444717407,0.051052436232566833,-0.025536488741636276,-0.0263568963855505,0.033335935324430466,-0.021408922970294952,-0.03515248000621796,0.013700027950108051,-0.017101744189858437,0.012170236557722092,-0.0442747063934803,0.07116170972585678,0.04128061607480049,0.0030488399788737297,-0.05704060196876526,-0.036733418703079224,-0.03828400745987892,-0.06588498502969742,0.06141123175621033,0.00746888667345047,0.0491117499768734,0.08074259757995605,0.06661710888147354,0.02042803168296814,-0.018891286104917526,0.03428500145673752,0.01037670113146305,-0.011012122966349125,-0.03334313631057739,0.03467937186360359,0.08551032096147537,-0.012591762468218803,-0.03217005729675293,0.04550108313560486,-0.039929214864969254,0.033796269446611404,0.07835467904806137,-0.0191152635961771,-0.0058427718468010426,0.07810861617326736,-0.0032930979505181313,-0.007568113040179014,-0.04353484883904457,-0.041768841445446014,-0.0577450655400753,0.13332952558994293,0.04103606566786766,0.010411594994366169,-0.05044736713171005,-0.0777805894613266,0.011050045490264893,-0.0140042994171381,0.013716323301196098,0.015690496191382408,0.04489236697554588,-0.010399543680250645,0.032913513481616974,-0.018789345398545265,-0.0414629690349102,-0.030858859419822693,0.010835609398782253,0.02885085716843605,0.010806997306644917,0.014378313906490803,0.05527181550860405,-0.08030853420495987,-0.05775866284966469,-0.0034273159690201283,0.0332476906478405,0.0015821038978174329,0.04010534659028053,-0.15588462352752686,-0.10837066918611526,-0.026225080713629723,0.11089694499969482,-0.01160893589258194,-0.07828766107559204,-0.017759695649147034,0.028297098353505135,0.03402554616332054,0.012430056929588318,0.0035751808900386095],[0.04047909006476402,0.02642815001308918,-0.036334119737148285,0.0012544828932732344,-0.019720161333680153,-0.07838702201843262,-0.060528263449668884,-0.10285450518131256,0.004951775539666414,0.00849766656756401,-0.02395826205611229,-0.001645435462705791,0.02294742502272129,-0.03550226241350174,0.04517202824354172,-0.0989544615149498,0.025211546570062637,-0.02639826014637947,0.04761283099651337,-0.022392138838768005,0.049902718514204025,-0.010804704390466213,-0.005108697805553675,-0.009181972593069077,0.03119623102247715,0.04006218537688255,-0.030382124707102776,-0.027047298848628998,-0.05299064517021179,0.022223714739084244,0.021547414362430573,0.037563685327768326,-0.021229123696684837,0.04346192255616188,0.00019252074707765132,-0.07544992119073868,0.007450907491147518,0.0258625578135252,0.04224865138530731,-0.00036182606709189713,0.00012428393529262394,-0.048741769045591354,0.07040493935346603,0.0019661232363432646,0.06611021608114243,-0.02840895764529705,0.05809931084513664,0.011773711070418358,-0.01569194532930851,-0.052751265466213226,0.04777735099196434,0.02069995366036892,-0.01135383639484644,0.0427754782140255,0.030132876709103584,0.08362195640802383,0.03225989639759064,-0.016443360596895218,0.08438854664564133,0.00279418146237731,0.07864652574062347,0.014421837404370308,0.013538562692701817,0.004356603603810072,0.01789362169802189,0.04897070676088333,0.013309262692928314,-0.0032250606454908848,-0.012351267039775848,0.03586222976446152,-0.025476889684796333,-0.058951713144779205,-0.04258393496274948,-0.025323498994112015,-0.02091022953391075,0.020277539268136024,-0.01381730381399393,0.05586666241288185,-0.08914068341255188,0.13930802047252655,-0.08370146155357361,0.02544107846915722,-0.011508314870297909,-0.03622318059206009,0.02076811157166958,0.026998979970812798,0.007851776666939259,0.032151028513908386,0.0019750248175114393,-0.06211817264556885,0.0003681665984913707,-0.023904869332909584,0.06116075813770294,-0.017147323116660118,-0.008218446746468544,-0.030819615349173546,0.04903440177440643,-0.031167306005954742,-0.06370363384485245,0.09864690899848938,-0.0698028951883316,0.011919122189283371,-0.08415744453668594,0.013735974207520485,0.005299304611980915,-0.024260390549898148,-0.09520626068115234,-0.03955003246665001,-0.020919017493724823,-0.05312999710440636,-0.058708395808935165,0.06324537098407745,0.017904769629240036,0.05871487036347389,-0.04316073656082153,0.004470601677894592,-0.08411354571580887,-0.07492788136005402,-0.017253825441002846,-0.019371137022972107,0.06426438689231873,-0.010451733134686947,0.021703049540519714,0.014626466669142246,0.0011410898296162486,-0.07993409037590027,-0.04875246435403824,0.08616693317890167],[0.060841191560029984,-0.028758922591805458,0.03133579343557358,0.08290711045265198,-0.030994562432169914,0.008595616556704044,0.006652449257671833,-0.0333411768078804,0.021974174305796623,-0.04717399924993515,-0.004436970222741365,-0.01240966934710741,0.018009958788752556,-0.0640643984079361,-0.03383955731987953,0.07040299475193024,0.017702175304293633,-0.006147297099232674,-0.019795255735516548,-0.01035357266664505,0.01833329163491726,-0.0217340849339962,-0.012676582671701908,-0.009147492237389088,0.018657490611076355,0.05252061039209366,-0.02651522122323513,0.06929565966129303,0.022458650171756744,0.024750839918851852,0.06082243099808693,0.029519790783524513,0.027852272614836693,0.00813019834458828,-0.0013255274388939142,-0.010381564497947693,-0.08473687618970871,0.028814008459448814,0.02197723276913166,-0.07448337972164154,0.038761552423238754,-0.05314582586288452,0.03825467824935913,-0.013354800641536713,0.04388158395886421,0.08325259387493134,-0.06213424727320671,-0.012654834426939487,0.009079826064407825,0.014310404658317566,0.006645816378295422,0.034433480352163315,-0.04926261678338051,-0.06499582529067993,-0.007456492632627487,0.06590665876865387,-0.060296207666397095,-0.06711331754922867,0.0760345309972763,-0.023567460477352142,-0.021200882270932198,-0.04230319336056709,0.08045722544193268,0.026320187374949455,-0.02618306875228882,-0.08277851343154907,-0.0877525806427002,0.028401438146829605,0.12701921164989471,0.01836557313799858,0.027956804260611534,-0.00486964825540781,0.024492770433425903,-0.009117565117776394,0.003655922133475542,-0.0482221320271492,-0.0508093498647213,0.00684692244976759,0.0011811795411631465,-0.0451800599694252,-0.036109667271375656,0.004990688059478998,0.0314091332256794,0.008315707556903362,-0.016003521159291267,-0.10358337312936783,0.026700181886553764,0.014515944756567478,0.09785749763250351,0.011210337281227112,0.025088666006922722,0.044569239020347595,-0.04646005854010582,-0.016890544444322586,-0.013369705528020859,-0.0071630156598985195,0.039475806057453156,0.06563567370176315,-0.0657406598329544,-0.020411960780620575,0.022972838953137398,-0.04143311455845833,-0.07638077437877655,-0.01093529723584652,-0.05556895211338997,-0.10314485430717468,0.026879260316491127,0.07141634076833725,0.04147333279252052,0.017618324607610703,0.007814696989953518,-0.011727504432201385,0.020256195217370987,-0.009351694025099277,-0.03484427183866501,0.10244876146316528,0.0274916160851717,0.08716611564159393,-0.04359322786331177,-0.0664813295006752,0.040584977716207504,-0.009793661534786224,0.09066487848758698,0.09007961302995682,-0.0631750077009201,-0.059925761073827744,-0.07977328449487686,0.009887215681374073],[-0.03262058645486832,-0.13574965298175812,-0.011028563603758812,0.0628473088145256,-0.05247631296515465,0.057475972920656204,0.026801515370607376,0.0025107809342443943,-0.046685803681612015,-0.0723218098282814,0.08789927512407303,-0.01795022189617157,0.02386210300028324,-0.00023318568128161132,-0.060578249394893646,0.0479922890663147,0.07045342773199081,0.07087831199169159,0.08211565017700195,-0.030476262792944908,